~o
<STREAMINFO> 1 60
<VECSIZE> 60<NULLD><USER><DIAGC>
~h "spkr"
<BEGINHMM>
<NUMSTATES> 3
<STATE> 2
<NUMMIXES> 256
<MIXTURE> 1 2.532413e-03
<MEAN> 60
 -9.737813e-01 8.166388e-01 2.879107e-01 1.064679e+00 8.228657e-01 7.096493e-01 5.221863e-01 2.412601e-01 5.895852e-01 4.917434e-01 6.340740e-01 5.781479e-01 5.605612e-01 8.428549e-01 7.997270e-01 5.670948e-01 4.153917e-01 3.974970e-01 2.418400e-01 1.469206e-01 8.532874e-02 7.665017e-02 1.087077e-02 6.521845e-01 1.806364e-01 4.668621e-01 2.072922e-01 -3.642186e-02 1.736888e-01 3.451619e-01 1.932025e-01 -7.042550e-03 7.906572e-02 2.743719e-01 4.499411e-01 3.369602e-01 3.560422e-01 4.933728e-01 5.064625e-01 3.505133e-01 -3.756932e-01 -3.305762e-01 -3.952427e-01 -4.667969e-01 -6.023477e-02 -2.554052e-01 1.030102e-01 6.218069e-02 -1.447151e-01 -2.241901e-01 -2.116065e-01 -1.309632e-01 -2.067230e-01 -4.258714e-01 -3.028288e-01 -1.238756e-01 -2.279768e-02 2.322395e-02 5.808643e-02 4.478973e-02
<VARIANCE> 60
 1.382160e-01 2.208661e-01 2.920675e-01 2.407261e-01 2.684304e-01 3.489422e-01 3.846969e-01 4.023377e-01 4.378388e-01 4.949448e-01 5.400745e-01 4.913806e-01 5.240654e-01 4.892447e-01 4.947484e-01 5.264980e-01 5.621684e-01 5.947588e-01 5.385110e-01 6.629964e-01 6.568557e-01 8.344043e-01 1.139428e+00 7.704716e-01 6.561434e-01 6.502709e-01 6.990557e-01 6.181967e-01 7.087561e-01 7.527712e-01 6.047850e-01 7.409210e-01 7.915377e-01 7.148041e-01 8.172415e-01 7.843976e-01 7.359855e-01 8.085890e-01 7.461324e-01 8.163378e-01 4.464563e-01 5.107632e-01 6.557836e-01 5.749313e-01 4.974535e-01 5.369847e-01 5.408167e-01 4.837787e-01 5.374586e-01 5.564366e-01 5.774837e-01 6.033340e-01 5.876207e-01 6.054990e-01 6.766360e-01 7.016516e-01 6.995755e-01 7.702824e-01 6.605749e-01 7.793093e-01
<GCONST> 7.588850e+01
<MIXTURE> 2 2.370296e-03
<MEAN> 60
 5.524282e-01 6.268099e-02 -5.770763e-01 6.371600e-01 9.090997e-01 -9.542040e-01 -1.048907e+00 5.866073e-01 4.477132e-01 5.352711e-02 -5.913342e-01 -3.088044e-01 5.869743e-01 1.733083e-01 -2.997940e-01 -5.922069e-01 -4.139777e-01 3.291129e-01 -7.574669e-02 -2.938080e-01 -1.789639e+00 1.310470e+00 1.371200e+00 1.282027e+00 2.906740e-01 6.433156e-01 1.109786e+00 -4.585631e-01 -1.947064e-01 -1.504231e-02 -1.990837e-01 6.253448e-01 4.219564e-01 2.284086e-01 2.595596e-01 4.474377e-01 2.743627e-01 2.623570e-01 2.679127e-01 9.595939e-02 -1.180833e+00 -5.570934e-01 2.181364e-01 -5.217991e-01 -5.143656e-01 1.442153e+00 1.265845e+00 -3.273977e-01 1.366704e-02 1.700014e-01 8.022630e-01 3.752089e-01 -7.606584e-01 -1.029076e-01 6.575491e-01 8.290610e-01 6.358408e-01 -8.915219e-02 2.289518e-01 5.399889e-01
<VARIANCE> 60
 1.607173e-01 3.834322e-01 4.330147e-01 3.930783e-01 5.176020e-01 6.878557e-01 1.033463e+00 1.056893e+00 8.405997e-01 1.031983e+00 9.765459e-01 8.820190e-01 9.609586e-01 1.053456e+00 9.665923e-01 1.080546e+00 1.159575e+00 1.009615e+00 9.679845e-01 9.150150e-01 6.420967e-01 9.864757e-01 1.270858e+00 8.385827e-01 1.207797e+00 1.596145e+00 1.752684e+00 1.976752e+00 1.759765e+00 1.859787e+00 1.792466e+00 1.573357e+00 1.530359e+00 1.547115e+00 1.582423e+00 1.393104e+00 1.454672e+00 1.426662e+00 1.387487e+00 1.480313e+00 6.959193e-01 7.905509e-01 9.254297e-01 9.948637e-01 8.784335e-01 1.082726e+00 1.205452e+00 1.538229e+00 1.233285e+00 1.396064e+00 1.323091e+00 1.238749e+00 1.350718e+00 1.585345e+00 1.361245e+00 1.411838e+00 1.502574e+00 1.420048e+00 1.270795e+00 1.218527e+00
<GCONST> 1.149364e+02
<MIXTURE> 3 5.230488e-03
<MEAN> 60
 6.912615e-01 -8.758379e-01 -1.111806e+00 -3.194208e-01 1.706844e-01 -1.804611e-01 2.146134e-01 -6.674443e-02 3.434239e-01 -2.491296e-01 -9.092989e-01 -8.564322e-01 3.978888e-01 -2.161708e-01 -5.719351e-01 1.322704e-01 -2.822868e-01 -2.856776e-01 -2.639699e-01 -3.884772e-01 1.820914e-02 1.930976e-01 4.374138e-02 7.524138e-02 3.583914e-02 8.059252e-03 -2.824997e-02 5.012413e-02 8.418386e-02 8.942407e-02 -3.864195e-02 -2.484041e-02 8.809868e-02 -1.878594e-02 3.070224e-02 -9.992340e-02 -2.085699e-02 -1.558490e-02 -7.019257e-02 -1.231894e-01 -1.162111e+00 9.049643e-01 1.189676e+00 6.670352e-01 3.982238e-01 5.076284e-01 6.080468e-02 1.485687e-01 -7.959281e-02 1.719759e-01 7.582617e-01 8.101867e-01 -1.818054e-01 3.687317e-01 5.766831e-01 1.016155e-02 3.434282e-01 2.903485e-01 2.869944e-01 2.976476e-01
<VARIANCE> 60
 1.668056e-01 4.235936e-01 2.905517e-01 4.686239e-01 4.815917e-01 7.599781e-01 7.393840e-01 7.209009e-01 8.727875e-01 1.048254e+00 6.787701e-01 8.320698e-01 8.737020e-01 9.878230e-01 8.463137e-01 8.322116e-01 8.198288e-01 7.292052e-01 7.476009e-01 8.064470e-01 3.677010e-01 1.727155e+00 8.254763e-01 7.289875e-01 7.438866e-01 8.087719e-01 8.556929e-01 8.701357e-01 7.854184e-01 1.018273e+00 8.001305e-01 9.237028e-01 1.007895e+00 1.126952e+00 9.736267e-01 9.823294e-01 1.105312e+00 9.049075e-01 8.693239e-01 8.726081e-01 5.960642e-01 6.214813e-01 5.478098e-01 7.734447e-01 5.915332e-01 7.627549e-01 8.129675e-01 8.339649e-01 1.028657e+00 1.041747e+00 8.381433e-01 8.216968e-01 9.233208e-01 9.536709e-01 8.908168e-01 8.939277e-01 8.862198e-01 8.569527e-01 8.796256e-01 9.243212e-01
<GCONST> 9.515476e+01
<MIXTURE> 4 3.388896e-03
<MEAN> 60
 -9.329363e-01 1.339167e+00 3.257055e-01 9.289395e-01 3.605592e-01 3.071614e-04 3.922278e-02 -6.240673e-01 -6.637472e-02 -8.048552e-01 1.454738e-01 -4.837122e-01 -3.327118e-01 -1.743579e-01 -2.924803e-01 -4.359733e-01 -2.604400e-01 -2.102124e-01 -2.134523e-01 -1.423048e-01 -2.053533e+00 -1.747065e-02 -6.395202e-01 7.286706e-01 1.294046e+00 1.362424e+00 1.040636e+00 9.187758e-01 9.623941e-01 5.304338e-01 1.056277e+00 1.577871e-01 5.180128e-01 1.229661e+00 9.449812e-01 9.395738e-01 9.927260e-01 6.185657e-01 3.773091e-01 -2.604640e-02 6.195952e-01 -1.250386e+00 -3.246241e-01 -9.062784e-01 -5.887505e-01 -1.253324e-01 1.084299e-01 5.983497e-01 2.418672e-01 9.910755e-01 -5.953056e-02 8.469982e-01 4.495180e-01 7.637627e-02 4.546859e-01 3.834506e-01 1.556272e-01 2.319360e-01 1.368327e-01 1.825702e-01
<VARIANCE> 60
 3.749832e-01 4.210162e-01 6.851776e-01 3.902167e-01 4.176369e-01 4.900424e-01 6.427751e-01 4.295532e-01 4.949264e-01 5.449927e-01 5.050249e-01 6.459432e-01 5.946140e-01 5.030092e-01 5.151120e-01 5.342957e-01 5.153111e-01 4.986674e-01 4.918126e-01 5.087246e-01 5.040979e-01 8.038036e-01 1.005373e+00 7.659218e-01 6.885859e-01 6.808680e-01 7.361733e-01 7.352458e-01 8.135003e-01 9.388669e-01 8.578066e-01 1.156837e+00 1.054970e+00 8.363360e-01 8.468118e-01 8.687223e-01 8.325937e-01 9.726917e-01 1.157577e+00 1.286467e+00 6.857175e-01 7.757171e-01 1.081782e+00 6.709587e-01 7.050674e-01 7.502812e-01 8.828096e-01 6.569850e-01 8.293677e-01 7.354419e-01 8.332840e-01 8.912085e-01 9.130944e-01 8.123372e-01 7.900068e-01 8.437189e-01 8.429500e-01 8.477846e-01 8.545823e-01 8.850600e-01
<GCONST> 8.925930e+01
<MIXTURE> 5 3.144082e-03
<MEAN> 60
 1.749850e-01 3.773167e-01 7.518694e-01 1.075937e+00 -4.589746e-01 -1.514618e+00 1.196191e-01 7.744119e-01 -1.123627e+00 -7.518070e-01 7.003368e-01 5.339873e-01 -3.649374e-01 -1.639992e-02 4.474944e-01 -3.222334e-01 -5.868341e-01 -6.310761e-03 -1.267939e-01 -1.892119e-01 -1.432250e+00 1.550897e+00 3.333458e-02 8.758356e-01 1.381777e+00 1.093323e+00 5.606541e-01 -9.128801e-01 1.751032e-01 4.789011e-01 -4.180524e-01 6.003371e-02 2.202376e-01 3.431458e-01 6.000816e-01 5.518478e-01 1.193231e-01 5.063956e-01 5.193126e-01 9.605798e-02 -7.874110e-01 -7.220148e-01 -1.008660e+00 -8.510256e-01 8.412849e-01 1.671160e+00 2.747620e-02 -4.495735e-01 1.491253e+00 9.075684e-01 -7.184420e-01 -4.912134e-01 5.028970e-01 1.540762e-01 -3.668258e-01 4.556352e-01 8.953657e-01 2.306987e-01 1.718543e-01 3.332072e-01
<VARIANCE> 60
 1.786159e-01 5.013905e-01 4.132043e-01 4.066549e-01 4.335676e-01 4.585881e-01 6.730862e-01 6.965969e-01 7.651088e-01 9.153913e-01 6.545197e-01 7.461625e-01 7.966334e-01 8.533705e-01 8.338557e-01 8.799051e-01 8.297476e-01 8.364457e-01 8.762624e-01 8.380905e-01 6.276872e-01 9.777445e-01 1.681846e+00 9.636884e-01 1.168684e+00 1.322102e+00 1.344739e+00 1.401057e+00 1.676695e+00 1.506288e+00 1.622864e+00 1.373015e+00 1.214942e+00 1.238423e+00 1.127519e+00 1.201189e+00 1.315631e+00 1.230802e+00 1.223198e+00 1.215648e+00 6.737932e-01 1.082341e+00 9.915816e-01 8.777907e-01 9.252603e-01 8.508388e-01 1.095977e+00 1.052049e+00 9.917235e-01 1.223671e+00 9.812303e-01 1.157676e+00 1.119517e+00 1.183772e+00 1.133302e+00 1.222535e+00 1.107152e+00 1.234054e+00 1.163965e+00 1.141394e+00
<GCONST> 1.066161e+02
<MIXTURE> 6 2.226509e-03
<MEAN> 60
 6.235517e-01 -1.107108e+00 -1.010843e+00 -6.371868e-01 3.196890e-02 8.500059e-02 -5.593614e-01 -9.587483e-02 -4.600457e-01 -6.182806e-01 -6.252624e-01 -7.531830e-01 -5.905884e-01 -3.032517e-01 -7.035526e-01 -6.029528e-01 -6.083764e-01 -6.909402e-01 -4.979454e-01 -5.263238e-01 3.475726e-02 8.496436e-02 4.976812e-02 1.172349e-01 1.109387e-01 2.859408e-02 6.830030e-02 1.067518e-01 1.134054e-01 6.363079e-02 1.065689e-01 1.284600e-01 1.172905e-01 7.153149e-02 7.852373e-02 1.185536e-01 4.433537e-02 8.810089e-02 2.274705e-02 2.851770e-02 1.481942e-01 4.391391e-01 5.350292e-01 3.981462e-01 2.272564e-01 2.507487e-01 5.037359e-01 3.540775e-01 5.101071e-01 4.454177e-01 4.544713e-01 5.455024e-01 4.924431e-01 3.581632e-01 5.015485e-01 5.022134e-01 4.520271e-01 4.439784e-01 3.230792e-01 3.188348e-01
<VARIANCE> 60
 1.747113e-01 5.160557e-01 7.019483e-01 6.921715e-01 8.828840e-01 1.053767e+00 8.974445e-01 9.959015e-01 8.902580e-01 9.385113e-01 7.272816e-01 8.291451e-01 1.008686e+00 9.462769e-01 7.887881e-01 7.291813e-01 7.417873e-01 6.769936e-01 7.294387e-01 8.545176e-01 6.489442e-02 1.741745e-01 2.265683e-01 2.324332e-01 2.500343e-01 2.959426e-01 3.183005e-01 3.277182e-01 3.188924e-01 3.306743e-01 3.455449e-01 4.039809e-01 4.358588e-01 3.983441e-01 4.485676e-01 4.355091e-01 4.012023e-01 4.308791e-01 4.248801e-01 4.445131e-01 8.466229e-02 1.964974e-01 2.369879e-01 2.124624e-01 2.404309e-01 2.667826e-01 2.655211e-01 3.088883e-01 3.007301e-01 3.056076e-01 2.835937e-01 3.238609e-01 3.742117e-01 3.823507e-01 3.588609e-01 3.702759e-01 3.683682e-01 3.641506e-01 3.869434e-01 4.355666e-01
<GCONST> 5.633935e+01
<MIXTURE> 7 3.261776e-03
<MEAN> 60
 -9.370825e-01 1.004228e+00 4.345899e-01 1.388831e+00 7.220336e-01 5.653802e-01 3.390321e-01 -5.712067e-02 4.545763e-01 1.680177e-01 6.032723e-01 3.472634e-01 5.380218e-01 8.295137e-01 8.143378e-01 6.232632e-01 6.571048e-01 5.144020e-01 2.368125e-01 8.841234e-02 -1.448719e+00 -1.507062e-01 -3.909070e-01 6.707510e-01 1.121017e+00 1.286779e+00 6.825812e-01 6.348518e-01 1.045487e+00 4.132448e-01 6.691251e-01 3.705722e-01 2.577311e-01 5.680590e-01 6.104453e-01 5.031185e-01 4.916721e-01 4.628984e-01 3.843798e-01 2.127137e-01 1.142975e+00 -1.434802e+00 -5.561556e-01 -1.577603e+00 -9.442352e-01 -8.606292e-01 -1.927729e-01 1.413624e-01 -4.155061e-01 9.817346e-02 -5.364640e-01 -1.488014e-01 -3.989565e-01 -7.822531e-01 -7.226993e-01 -5.825697e-01 -6.572866e-01 -4.498582e-01 -2.397771e-01 -6.639434e-02
<VARIANCE> 60
 1.476624e-01 1.982917e-01 2.675301e-01 1.793895e-01 2.653673e-01 3.558021e-01 4.194695e-01 4.407384e-01 4.576637e-01 5.145655e-01 4.408612e-01 5.670452e-01 5.861723e-01 5.192430e-01 5.109325e-01 5.375446e-01 5.629641e-01 5.399692e-01 4.529584e-01 5.127780e-01 4.643797e-01 8.474373e-01 1.380006e+00 7.431257e-01 9.296773e-01 8.612795e-01 1.017685e+00 1.153739e+00 1.112349e+00 1.176042e+00 1.211092e+00 1.161261e+00 1.142986e+00 1.071435e+00 1.123999e+00 1.124399e+00 1.048073e+00 1.028158e+00 1.026678e+00 1.063883e+00 5.418980e-01 7.255833e-01 1.412532e+00 6.798399e-01 8.113672e-01 9.119410e-01 9.128526e-01 8.921093e-01 9.637703e-01 9.050863e-01 8.917634e-01 9.619072e-01 9.381858e-01 8.707567e-01 8.683702e-01 9.191486e-01 8.923274e-01 9.137107e-01 8.276548e-01 9.313484e-01
<GCONST> 8.926984e+01
<MIXTURE> 8 1.400324e-03
<MEAN> 60
 4.099482e-02 -1.525806e-01 -3.309598e-02 -1.840545e-01 -2.502321e-01 -3.598329e-01 -2.603964e-01 -2.998642e-01 -3.670521e-01 -2.548830e-01 -1.824732e-02 9.734499e-01 1.272014e+00 1.924609e+00 2.257012e+00 1.978653e+00 1.193423e+00 -2.489040e-02 -1.295066e+00 -1.836736e+00 -1.035307e-01 1.199871e-01 -7.924461e-02 1.193019e-01 1.313329e-03 3.965282e-02 4.686139e-02 4.346470e-03 6.151946e-02 -3.574858e-05 6.094706e-02 -3.648762e-02 -7.446150e-02 -2.962003e-02 -1.212774e-02 1.587773e-02 1.027731e-01 1.679364e-01 2.343106e-01 1.919841e-01 -4.302688e-01 1.705509e-01 2.250203e-01 2.737638e-01 4.249400e-01 3.785873e-01 3.478000e-01 2.186932e-01 2.742134e-01 3.142350e-01 6.792238e-02 -5.757737e-01 -7.956010e-01 -1.195650e+00 -1.488653e+00 -1.272863e+00 -5.507651e-01 4.378096e-01 1.343758e+00 1.542018e+00
<VARIANCE> 60
 3.818592e-01 7.755349e-01 9.213533e-01 6.900855e-01 8.563545e-01 9.192944e-01 9.421955e-01 1.165099e+00 8.712157e-01 9.352620e-01 9.625881e-01 1.021729e+00 9.874338e-01 8.273325e-01 7.909942e-01 9.153193e-01 1.278855e+00 1.689753e+00 1.534899e+00 1.171588e+00 1.033295e+00 1.409819e+00 1.185213e+00 1.195056e+00 1.179040e+00 1.253947e+00 1.148906e+00 1.270348e+00 1.285886e+00 1.297203e+00 1.481393e+00 1.612222e+00 1.879373e+00 1.796364e+00 2.113641e+00 2.377808e+00 2.665409e+00 2.777896e+00 2.747295e+00 2.564197e+00 8.720813e-01 1.100390e+00 1.068430e+00 9.788687e-01 1.121508e+00 1.158861e+00 1.106616e+00 1.266787e+00 1.052572e+00 9.983232e-01 1.169497e+00 1.254790e+00 1.319883e+00 1.288880e+00 1.270595e+00 1.343204e+00 1.549097e+00 1.705056e+00 1.564884e+00 1.489885e+00
<GCONST> 1.226493e+02
<MIXTURE> 9 3.619066e-03
<MEAN> 60
 4.091741e-01 -7.135255e-01 -4.965559e-01 -3.609510e-01 3.089290e-01 6.928467e-02 -2.698546e-01 1.856261e-01 -3.956057e-01 -5.213009e-01 -4.958560e-01 -2.001494e-01 -2.932855e-01 2.127553e-01 3.861106e-01 9.490807e-01 1.233270e+00 1.905749e+00 1.881801e+00 1.515532e+00 2.189887e-02 9.019438e-03 -2.740378e-03 4.795283e-02 -5.687110e-02 -6.359023e-02 7.590100e-03 4.336441e-02 -2.377315e-02 1.166772e-02 1.724967e-02 9.285285e-02 -3.308858e-03 6.260940e-03 1.198428e-01 -5.184642e-02 1.019391e-01 6.129948e-02 -9.647412e-04 2.265972e-02 -1.737955e-01 3.965050e-01 3.479191e-01 2.408579e-01 -2.112397e-01 -1.342856e-01 6.963401e-02 -1.921469e-01 1.736100e-01 2.033285e-01 1.158306e-01 1.944071e-01 2.196941e-01 -1.543410e-02 5.847893e-03 -2.571737e-01 -3.835517e-01 -9.152501e-01 -9.970539e-01 -7.951344e-01
<VARIANCE> 60
 2.500742e-01 6.465746e-01 5.762284e-01 6.223254e-01 8.536469e-01 9.819086e-01 1.371619e+00 9.331228e-01 8.878094e-01 1.108668e+00 7.964863e-01 1.120335e+00 9.749249e-01 1.016184e+00 9.738963e-01 8.859749e-01 9.681974e-01 6.954203e-01 7.328528e-01 9.264166e-01 1.772871e-01 6.284248e-01 5.681469e-01 4.710684e-01 7.062122e-01 7.537460e-01 8.134695e-01 8.361032e-01 7.566835e-01 8.085802e-01 7.877101e-01 9.313083e-01 9.172217e-01 9.533690e-01 1.132660e+00 1.222928e+00 1.579013e+00 1.393875e+00 1.391919e+00 1.483503e+00 3.219023e-01 5.779577e-01 6.213210e-01 5.896038e-01 6.391479e-01 6.592461e-01 8.511317e-01 7.559991e-01 7.908131e-01 7.707549e-01 8.271687e-01 8.969898e-01 8.660688e-01 8.675053e-01 9.548511e-01 9.286953e-01 1.067176e+00 9.806438e-01 1.027237e+00 1.106066e+00
<GCONST> 9.778415e+01
<MIXTURE> 10 5.492053e-03
<MEAN> 60
 7.609926e-01 4.249287e-01 -6.863067e-01 -4.481730e-01 3.479041e-01 3.251362e-01 -3.612304e-01 -8.743644e-01 -2.334553e-01 5.446983e-01 4.467165e-01 -3.468677e-01 -5.187091e-01 -5.552731e-05 -1.528165e-02 -1.878432e-01 -1.391952e-01 -3.032072e-01 -3.031188e-01 8.527280e-02 -1.409833e+00 1.465407e+00 9.399048e-01 1.490934e+00 7.218317e-01 -1.582723e-01 5.200640e-01 -1.765136e-01 -3.666059e-01 -4.241796e-01 -2.242475e-01 3.870679e-01 2.141827e-01 3.109033e-03 4.006577e-01 3.184075e-01 -8.298410e-02 2.718544e-01 4.395831e-02 -1.722908e-02 -1.370165e+00 -4.185707e-01 6.063130e-01 5.491182e-01 1.074810e-01 7.011346e-02 4.858049e-01 9.052836e-01 5.198865e-01 -3.957154e-01 -4.816756e-01 2.615894e-01 4.698632e-01 1.877350e-01 1.044780e-01 2.568178e-01 2.939288e-01 4.440884e-01 4.376565e-01 -5.042727e-02
<VARIANCE> 60
 1.577430e-01 3.629730e-01 4.012038e-01 7.213054e-01 3.628840e-01 5.425649e-01 8.326023e-01 5.737579e-01 6.961444e-01 7.990833e-01 8.047307e-01 9.017312e-01 7.364328e-01 9.137988e-01 8.000896e-01 8.508458e-01 8.630716e-01 8.822652e-01 8.936549e-01 8.939102e-01 5.808859e-01 9.680476e-01 1.257715e+00 1.274870e+00 1.066040e+00 1.585235e+00 1.507172e+00 1.537018e+00 1.503765e+00 1.530534e+00 1.547249e+00 1.371110e+00 1.446319e+00 1.292651e+00 1.286399e+00 1.413136e+00 1.446738e+00 1.262403e+00 1.351024e+00 1.246236e+00 5.840321e-01 7.100338e-01 7.502101e-01 8.814802e-01 7.156820e-01 7.271556e-01 9.309950e-01 7.791072e-01 8.476944e-01 9.071823e-01 1.012061e+00 1.111601e+00 9.912944e-01 1.099692e+00 9.890695e-01 1.060145e+00 1.059515e+00 1.044532e+00 1.081826e+00 1.070387e+00
<GCONST> 1.047861e+02
<MIXTURE> 11 2.250399e-03
<MEAN> 60
 -2.110028e-01 1.139553e+00 1.391876e+00 6.206447e-01 -7.754299e-01 -5.522425e-01 5.475913e-01 -8.303037e-01 -1.174586e+00 6.284549e-01 2.562476e-01 -4.223569e-01 2.683529e-01 6.447549e-01 -9.952338e-02 -4.743097e-01 -1.336638e-02 7.580195e-02 -4.222228e-01 -1.385303e-01 -1.398806e+00 8.503179e-01 -1.000205e+00 1.286565e+00 2.074281e+00 1.064681e+00 2.947589e-01 7.635323e-02 1.244116e+00 -1.978118e-01 -1.127102e-01 4.937316e-01 8.831172e-02 2.507226e-01 6.784607e-01 7.232295e-01 7.481819e-01 6.192035e-01 5.992854e-01 5.270366e-01 -4.156099e-01 -1.444135e+00 -1.314203e+00 -4.363091e-01 7.416492e-01 6.435950e-01 -2.950761e-01 1.114578e+00 1.205367e+00 -4.504678e-01 9.790539e-02 6.746604e-01 -1.334999e-01 -5.355552e-01 3.706618e-01 6.595801e-01 -5.513063e-02 4.415330e-02 6.050153e-01 1.698873e-01
<VARIANCE> 60
 2.065285e-01 3.496367e-01 4.242626e-01 5.341846e-01 5.104408e-01 5.100936e-01 5.124357e-01 6.120606e-01 9.291633e-01 7.048969e-01 8.364426e-01 8.829208e-01 9.245620e-01 8.414440e-01 8.415090e-01 8.618506e-01 8.145713e-01 8.177041e-01 8.066681e-01 8.285494e-01 5.647469e-01 9.928620e-01 1.390351e+00 1.140584e+00 6.823558e-01 1.120870e+00 1.306631e+00 1.338696e+00 1.206630e+00 1.622924e+00 1.780689e+00 1.288144e+00 1.333693e+00 1.356985e+00 1.123222e+00 1.127906e+00 1.143210e+00 1.173375e+00 1.282014e+00 1.338209e+00 5.549734e-01 7.753530e-01 9.046279e-01 9.882303e-01 9.719855e-01 8.540085e-01 8.880070e-01 7.681856e-01 1.150827e+00 9.817652e-01 1.155457e+00 1.085628e+00 1.201112e+00 1.126346e+00 1.126473e+00 1.171954e+00 1.012701e+00 1.154588e+00 1.066415e+00 1.171193e+00
<GCONST> 1.046695e+02
<MIXTURE> 12 5.994509e-03
<MEAN> 60
 1.183938e+00 -2.965882e-01 -1.595900e+00 1.857798e-01 1.071813e+00 -6.221725e-01 -1.578284e+00 2.277215e-01 1.199852e+00 3.594024e-01 -4.163927e-01 2.788209e-02 8.395293e-02 -2.451110e-01 -2.298601e-01 -3.410609e-01 -2.710473e-01 7.106093e-02 -2.295129e-01 1.779542e-01 -4.264855e-02 1.833795e-01 -9.157565e-02 -2.548279e-02 1.442862e-01 1.454245e-01 4.492560e-02 -9.686761e-02 -1.954876e-02 4.412977e-02 -2.001869e-02 -5.916044e-02 -1.067059e-02 3.834534e-02 1.198238e-02 3.216351e-02 4.365583e-02 2.446517e-02 -2.803709e-02 -3.419708e-02 -3.747264e-01 -1.171114e-01 7.161217e-01 2.173306e-01 -5.269693e-01 5.163474e-03 6.951273e-01 2.061175e-01 -4.407665e-01 -4.154870e-01 1.649509e-01 2.419060e-01 -1.730112e-01 -2.250200e-01 1.759879e-01 2.138592e-01 2.713788e-03 -8.861175e-02 1.038178e-01 -4.667287e-02
<VARIANCE> 60
 7.607966e-02 2.906123e-01 2.971721e-01 4.372418e-01 3.570381e-01 6.181114e-01 5.603762e-01 1.110973e+00 5.702513e-01 9.181187e-01 7.743823e-01 7.665234e-01 6.938202e-01 7.708691e-01 6.377558e-01 6.997262e-01 6.647608e-01 6.901255e-01 7.125704e-01 8.110968e-01 8.943507e-02 2.814972e-01 3.720238e-01 3.100591e-01 3.227610e-01 4.081470e-01 4.227359e-01 5.855150e-01 4.088350e-01 5.689335e-01 4.834283e-01 4.783152e-01 4.720479e-01 5.851851e-01 4.449004e-01 5.034502e-01 4.939313e-01 4.828431e-01 5.157021e-01 5.569949e-01 1.407559e-01 2.662901e-01 3.802967e-01 3.212949e-01 3.517996e-01 4.201829e-01 4.130478e-01 5.196108e-01 4.729491e-01 5.144990e-01 5.023351e-01 4.711682e-01 5.055742e-01 5.476918e-01 5.011032e-01 5.131717e-01 5.058146e-01 5.118757e-01 5.086968e-01 5.625320e-01
<GCONST> 6.391954e+01
<MIXTURE> 13 3.699069e-03
<MEAN> 60
 -1.148791e+00 8.501962e-01 1.799676e-01 1.308032e+00 9.312764e-01 8.548014e-01 7.179080e-01 2.726389e-01 7.232721e-01 5.013388e-01 7.223659e-01 6.368881e-01 6.416534e-01 8.601484e-01 8.046309e-01 6.497988e-01 5.894928e-01 6.039613e-01 3.903932e-01 2.728625e-01 -3.131874e-02 -2.972144e-03 -3.127293e-04 1.279475e-02 8.460928e-03 1.753883e-02 -9.897336e-03 -2.700876e-02 -1.694688e-02 1.216892e-02 6.245650e-03 -9.157319e-03 -4.881250e-03 3.645963e-04 2.215002e-02 2.609417e-02 5.329840e-02 5.182026e-02 4.118613e-02 1.791125e-02 1.000816e-01 -1.110580e-01 -8.642258e-02 -2.280957e-01 -7.948946e-02 -1.110324e-01 -3.971636e-03 -4.394838e-02 -8.617084e-02 -1.150550e-01 -1.291911e-01 -1.322533e-01 -2.181928e-01 -2.571672e-01 -1.453121e-01 -9.977584e-02 -6.526626e-02 1.405587e-02 2.664694e-02 -9.309415e-03
<VARIANCE> 60
 1.441690e-01 1.418060e-01 1.854106e-01 1.487099e-01 1.758982e-01 2.794342e-01 3.065078e-01 3.159720e-01 3.840808e-01 3.955118e-01 4.636109e-01 4.435542e-01 4.495525e-01 4.240044e-01 4.647616e-01 5.067241e-01 5.458227e-01 4.909070e-01 5.518559e-01 5.616771e-01 2.885546e-02 6.650746e-02 1.225424e-01 1.446169e-01 1.705949e-01 2.191796e-01 2.588770e-01 2.577479e-01 3.191589e-01 3.832726e-01 3.773968e-01 4.444388e-01 5.026566e-01 4.848598e-01 5.273029e-01 5.441588e-01 5.660564e-01 5.513085e-01 6.025481e-01 6.372514e-01 8.048310e-02 1.433587e-01 2.135276e-01 2.416728e-01 2.244840e-01 2.972757e-01 3.495288e-01 3.103926e-01 3.825498e-01 4.092957e-01 4.282092e-01 4.989267e-01 4.735890e-01 5.072974e-01 5.791078e-01 6.199100e-01 6.307369e-01 6.023620e-01 6.364567e-01 6.770835e-01
<GCONST> 4.342337e+01
<MIXTURE> 14 3.159820e-03
<MEAN> 60
 -1.411007e+00 9.034295e-02 -7.139221e-02 3.485442e-01 7.621678e-01 -5.646204e-01 6.138152e-01 8.619626e-01 3.334998e-01 2.403461e-01 4.321573e-02 6.632966e-01 2.848396e-01 -1.259072e-01 8.992670e-02 3.332618e-01 3.355887e-01 3.392186e-01 2.597164e-01 3.966877e-01 -9.334322e-01 9.104548e-01 4.858287e-01 -1.012201e-02 3.439038e-01 3.206041e-02 3.816571e-01 1.295888e-01 4.047379e-02 -6.171242e-02 5.737338e-02 2.288687e-01 1.569633e-01 2.196543e-02 5.343775e-02 1.640651e-01 1.952162e-01 1.283566e-02 -1.099271e-02 1.537829e-01 5.254528e-01 5.704106e-01 1.011604e-01 3.837283e-01 1.360535e-01 9.665931e-01 -1.303174e-01 -6.388369e-01 -1.049291e-01 5.719697e-02 -8.380534e-03 -3.188729e-01 6.446816e-02 4.698220e-01 2.814663e-01 8.150781e-03 -9.269276e-02 9.651588e-03 -1.834665e-02 -2.220970e-01
<VARIANCE> 60
 3.454671e-01 4.723964e-01 3.985217e-01 5.398123e-01 4.096900e-01 5.023010e-01 5.224663e-01 5.197510e-01 6.003504e-01 7.051510e-01 7.538093e-01 6.017271e-01 6.074534e-01 5.808277e-01 6.747125e-01 6.137232e-01 6.301323e-01 6.416051e-01 6.818058e-01 6.911323e-01 1.286361e+00 1.301441e+00 9.389074e-01 8.526563e-01 6.695091e-01 8.927916e-01 7.852051e-01 7.952878e-01 7.295681e-01 8.063750e-01 8.434103e-01 8.412948e-01 7.910415e-01 8.214895e-01 8.357725e-01 8.410679e-01 8.513295e-01 8.704573e-01 8.828638e-01 8.603505e-01 8.244192e-01 9.062692e-01 9.014073e-01 8.497037e-01 6.693871e-01 6.710723e-01 7.621585e-01 6.801779e-01 8.208078e-01 8.712499e-01 8.488654e-01 8.099702e-01 8.167346e-01 7.535254e-01 8.465043e-01 8.108731e-01 8.035008e-01 8.284256e-01 8.329864e-01 8.484967e-01
<GCONST> 9.154161e+01
<MIXTURE> 15 3.522649e-03
<MEAN> 60
 8.328251e-01 -7.985828e-01 -6.705108e-01 8.012541e-04 -2.258171e-01 -3.714653e-01 3.360798e-02 8.794023e-01 -3.515675e-01 -6.146631e-01 5.497960e-01 3.712955e-01 -9.090219e-01 -5.406141e-01 5.691307e-01 -7.965589e-02 -6.061124e-01 1.224411e-01 3.112496e-01 -2.114992e-01 2.930303e-01 -5.500015e-03 -9.249059e-01 4.303843e-01 8.714389e-01 -5.004279e-01 -8.418968e-01 5.306326e-01 6.811885e-01 -5.669302e-01 -4.244976e-01 7.600425e-01 3.275582e-01 -7.531424e-01 -2.235506e-01 6.963046e-01 7.784619e-02 -5.493380e-01 6.838318e-02 4.709650e-01 -1.010315e-01 3.459577e-01 1.661804e-01 -2.112620e-01 1.217308e-01 2.517180e-01 -3.856236e-01 -6.675899e-01 4.273847e-01 5.645298e-01 -5.908558e-01 -4.799247e-01 7.095792e-01 3.164370e-01 -7.152874e-01 -1.432712e-01 6.520748e-01 -6.568772e-02 -6.011051e-01 2.192742e-01
<VARIANCE> 60
 1.994327e-01 4.844771e-01 8.452644e-01 6.447706e-01 6.176879e-01 9.988991e-01 8.531548e-01 8.186107e-01 9.273952e-01 9.440330e-01 9.628798e-01 1.008333e+00 8.576488e-01 9.107621e-01 9.592830e-01 9.567761e-01 9.134480e-01 9.501465e-01 8.798081e-01 9.825141e-01 7.841431e-02 2.647642e-01 3.553506e-01 3.088619e-01 3.942692e-01 4.338258e-01 5.120255e-01 4.548917e-01 5.470207e-01 5.982072e-01 5.860597e-01 5.650043e-01 7.025586e-01 6.745580e-01 7.494426e-01 7.025489e-01 8.003567e-01 7.288784e-01 7.400151e-01 7.294613e-01 1.113536e-01 2.901799e-01 3.904716e-01 3.845625e-01 4.347510e-01 5.447741e-01 5.072929e-01 4.928167e-01 5.524473e-01 5.712771e-01 5.789673e-01 6.249498e-01 5.827399e-01 7.171531e-01 6.613312e-01 7.363809e-01 7.096093e-01 7.330312e-01 6.610903e-01 7.243459e-01
<GCONST> 7.832426e+01
<MIXTURE> 16 3.293409e-03
<MEAN> 60
 -9.653734e-02 4.571266e-01 -1.098341e-01 2.239235e-01 -1.115037e-02 -3.996682e-01 9.634743e-03 -3.612941e-01 5.286515e-01 2.912852e-02 2.606291e-01 1.844042e-01 1.174005e-01 2.152000e-01 -7.669134e-02 -1.716893e-01 -1.849572e-01 1.963421e-01 -6.454322e-02 -3.513391e-02 1.105124e+00 -1.416495e+00 -5.905408e-01 -1.479647e+00 -8.488064e-01 -2.327701e-01 -4.717487e-01 8.109766e-01 5.096335e-01 7.744753e-01 2.579532e-02 -1.565862e-02 8.299669e-02 -1.563578e-01 -3.979997e-01 -3.404282e-01 1.649231e-01 -1.035146e-01 2.572742e-02 7.100534e-02 5.073597e-01 -2.243526e-01 1.983795e-01 -9.774677e-02 9.720190e-02 5.567595e-01 -1.345247e-01 1.666795e-01 -7.428693e-01 -3.688492e-03 -5.090895e-01 -4.499927e-01 -3.072915e-01 -2.811119e-01 6.686296e-02 1.172208e-01 2.397663e-01 -2.534354e-01 1.679410e-02 1.939155e-02
<VARIANCE> 60
 2.486483e-01 3.928529e-01 4.492691e-01 4.392130e-01 5.259798e-01 5.291647e-01 5.565585e-01 5.416605e-01 5.577323e-01 6.488591e-01 5.579318e-01 7.110042e-01 6.137703e-01 7.327819e-01 6.304829e-01 6.783156e-01 6.388627e-01 5.745239e-01 6.169597e-01 5.950106e-01 7.405022e-01 1.051112e+00 1.676128e+00 1.298846e+00 1.325772e+00 1.672204e+00 1.605450e+00 1.472744e+00 1.763099e+00 1.470261e+00 1.714778e+00 1.685419e+00 1.646680e+00 1.412560e+00 1.613198e+00 1.592179e+00 1.496592e+00 1.382400e+00 1.332029e+00 1.338078e+00 6.730465e-01 9.465927e-01 9.634882e-01 9.524447e-01 1.032863e+00 9.845511e-01 9.660342e-01 9.466520e-01 9.239712e-01 1.037110e+00 9.515870e-01 1.141802e+00 1.011222e+00 1.058604e+00 9.852171e-01 1.091217e+00 1.111516e+00 9.505099e-01 1.012002e+00 1.011226e+00
<GCONST> 1.051917e+02
<MIXTURE> 17 4.792025e-03
<MEAN> 60
 7.060633e-02 1.409181e+00 5.155541e-01 1.009758e+00 3.798012e-01 -1.659537e-01 -1.222090e-01 -8.695182e-01 -6.072916e-01 -2.492505e-01 -5.705281e-01 -3.683841e-01 -1.865785e-01 -1.225239e-01 -3.672981e-02 -1.711394e-01 -1.901968e-01 7.144968e-02 -8.685185e-02 -1.956501e-01 -3.094521e-01 1.775127e-01 1.845162e-01 2.149661e-01 2.753533e-01 2.136975e-01 1.195673e-01 4.855544e-02 5.801705e-02 -7.888047e-02 -3.943580e-02 9.304409e-02 4.062553e-02 6.911004e-02 7.861061e-02 4.742377e-02 6.083949e-02 3.434123e-02 5.218390e-02 2.204043e-03 -1.185606e-01 -8.597438e-01 -3.445990e-01 -5.083503e-01 -1.446070e-01 1.214073e-01 1.635746e-01 4.444166e-01 3.324340e-01 1.519392e-01 3.161817e-01 2.687965e-01 1.771430e-01 1.036918e-01 3.096947e-02 1.170119e-01 9.947889e-02 -3.052406e-02 1.687332e-02 1.082930e-01
<VARIANCE> 60
 2.123090e-01 3.416958e-01 3.801483e-01 4.355403e-01 4.804647e-01 5.067517e-01 5.858365e-01 4.739511e-01 5.528468e-01 7.460444e-01 6.442870e-01 7.142107e-01 8.294052e-01 7.202353e-01 7.676966e-01 7.819248e-01 6.914079e-01 8.050253e-01 8.406049e-01 8.655022e-01 2.087435e-01 3.156514e-01 3.442714e-01 3.543176e-01 3.444968e-01 4.079568e-01 4.149651e-01 4.217854e-01 4.328792e-01 5.118749e-01 5.198427e-01 5.654126e-01 5.923208e-01 5.782781e-01 5.996044e-01 5.806122e-01 6.346765e-01 6.595995e-01 6.982026e-01 7.437106e-01 3.837565e-01 5.025969e-01 5.499926e-01 5.755025e-01 5.056177e-01 5.087663e-01 5.280097e-01 4.872373e-01 5.367463e-01 6.649559e-01 5.730369e-01 6.506336e-01 6.786070e-01 6.409139e-01 6.731322e-01 7.011843e-01 6.799189e-01 7.189597e-01 7.941535e-01 8.147952e-01
<GCONST> 7.438966e+01
<MIXTURE> 18 4.211635e-03
<MEAN> 60
 3.706107e-01 -7.226118e-01 1.355289e+00 -1.930941e-01 -1.300179e+00 -9.258731e-01 -6.683969e-01 8.751562e-01 -9.357529e-01 -1.220877e-02 5.669932e-01 2.955095e-01 3.911054e-01 -6.853386e-01 -1.405860e-01 -8.067594e-02 -3.553357e-01 -1.066328e+00 2.298277e-01 2.204582e-01 -6.621896e-02 3.012422e-01 3.849639e-01 2.492109e-01 -1.175929e-01 6.689261e-02 3.425224e-02 -2.652719e-01 -4.455841e-01 -2.060346e-01 2.420083e-01 -2.208893e-02 5.140778e-03 2.585388e-01 3.012416e-01 7.596342e-02 -3.503560e-01 8.044706e-02 1.068291e-03 -2.759285e-01 -4.972833e-01 1.025059e+00 -9.743867e-01 6.844656e-01 1.085377e+00 3.758292e-01 6.498169e-01 -8.555478e-01 7.415248e-01 -2.875464e-01 -6.361846e-01 -3.070162e-01 -2.724082e-01 5.545260e-01 -1.499420e-01 9.646024e-02 3.154358e-01 8.433935e-01 -3.307998e-01 -2.252000e-01
<VARIANCE> 60
 8.841150e-02 2.381088e-01 2.967969e-01 2.624528e-01 2.717975e-01 3.374706e-01 4.011520e-01 3.985018e-01 5.079150e-01 4.996816e-01 5.602582e-01 5.258960e-01 6.804053e-01 6.423805e-01 6.788322e-01 7.771667e-01 7.758080e-01 5.973800e-01 8.672280e-01 8.200877e-01 1.427139e-01 5.783196e-01 5.985339e-01 5.607973e-01 5.640714e-01 5.130428e-01 5.912735e-01 7.922528e-01 1.018097e+00 7.850465e-01 8.020685e-01 6.388802e-01 8.547113e-01 8.526620e-01 8.625590e-01 8.611189e-01 9.925508e-01 8.430721e-01 9.865445e-01 9.320452e-01 4.425374e-01 4.973102e-01 6.650731e-01 4.979291e-01 5.895681e-01 6.427165e-01 6.585763e-01 6.197452e-01 6.636643e-01 6.181194e-01 7.099555e-01 6.962550e-01 7.183499e-01 7.441028e-01 7.386944e-01 8.385473e-01 9.176681e-01 7.284453e-01 9.181879e-01 9.195337e-01
<GCONST> 7.935532e+01
<MIXTURE> 19 2.277213e-03
<MEAN> 60
 1.021736e+00 -7.247316e-01 -1.312306e+00 -4.321253e-01 -1.314444e-01 6.283086e-01 7.031152e-02 -3.665131e-01 9.534694e-03 8.344086e-02 1.210068e+00 3.597578e-02 -1.752441e+00 -7.170477e-01 9.284093e-01 8.333765e-02 -2.049467e-01 4.831693e-01 -3.550059e-01 -2.962854e-01 -1.149418e-02 -4.134995e-01 -2.062248e-01 1.219607e+00 5.268294e-01 -9.954216e-01 -1.130674e+00 3.445941e-01 1.009710e+00 2.589941e-01 -6.265971e-01 -3.160743e-01 -6.161216e-03 -1.774967e-01 6.716166e-01 5.454645e-01 -9.943080e-01 -7.458456e-01 6.043014e-01 5.325510e-01 -1.957256e-01 4.570268e-01 6.194661e-01 5.641538e-02 -1.627381e-02 -4.088063e-01 -2.178425e-01 2.415928e-01 1.817459e-01 -8.247580e-02 -1.094339e+00 -1.190199e-01 1.614956e+00 5.715600e-01 -9.937017e-01 -5.153488e-01 1.178985e-01 -2.212768e-01 3.217693e-01 3.390185e-01
<VARIANCE> 60
 8.874341e-02 3.284111e-01 2.764034e-01 3.997081e-01 4.767612e-01 5.580934e-01 8.010349e-01 9.137402e-01 8.552072e-01 1.002415e+00 9.554679e-01 1.265162e+00 6.158453e-01 1.167241e+00 9.036824e-01 9.681803e-01 1.030445e+00 9.007394e-01 1.010364e+00 9.733574e-01 9.974675e-02 3.307251e-01 5.205150e-01 6.008171e-01 6.429089e-01 6.999415e-01 7.809621e-01 8.481340e-01 7.901389e-01 9.990618e-01 9.818073e-01 1.242737e+00 1.444995e+00 1.278248e+00 1.108852e+00 1.272923e+00 1.107292e+00 1.156862e+00 1.113770e+00 1.101244e+00 2.019938e-01 3.165028e-01 5.723280e-01 6.043661e-01 6.550331e-01 6.346293e-01 7.918278e-01 8.028600e-01 9.776552e-01 9.590042e-01 9.332329e-01 1.245274e+00 8.427551e-01 1.384388e+00 9.204178e-01 1.069475e+00 1.081351e+00 1.068617e+00 1.054147e+00 1.181043e+00
<GCONST> 9.341252e+01
<MIXTURE> 20 3.428698e-03
<MEAN> 60
 -5.895295e-01 6.847678e-01 3.477348e-02 1.071085e+00 7.725165e-01 3.809134e-02 1.112625e-01 2.093241e-01 4.513869e-01 3.264041e-01 -3.870063e-02 3.012438e-01 4.403019e-01 3.417205e-01 4.524294e-01 2.249794e-01 1.218534e-01 5.313304e-01 4.482145e-01 2.411497e-01 -1.990094e+00 6.751528e-01 7.964571e-01 1.000706e+00 5.560689e-01 1.018211e+00 8.956123e-01 -1.101222e-01 1.748819e-01 2.933442e-01 4.776084e-01 4.514725e-01 1.140751e-01 4.061198e-01 7.272682e-01 6.303219e-01 4.745848e-01 5.570872e-01 5.872754e-01 4.138889e-01 6.658044e-01 -1.222403e+00 -6.770592e-01 -1.225632e+00 -4.592643e-01 5.327224e-02 -9.384556e-02 7.619087e-02 -1.438670e-01 -1.665813e-01 4.735169e-02 -2.937031e-01 -3.762998e-01 -1.924061e-01 -3.175731e-01 -1.144374e-01 4.256923e-02 -3.419538e-01 -3.583340e-01 -2.080897e-01
<VARIANCE> 60
 2.927058e-01 4.116171e-01 3.849496e-01 3.932978e-01 5.209427e-01 6.365786e-01 7.318377e-01 8.682312e-01 7.235767e-01 9.056773e-01 9.749194e-01 8.720172e-01 8.118021e-01 8.151411e-01 7.711554e-01 8.725629e-01 9.017998e-01 8.409893e-01 8.217179e-01 8.342907e-01 6.631333e-01 1.008339e+00 1.200587e+00 1.041694e+00 1.258369e+00 1.775225e+00 1.730441e+00 1.605442e+00 1.571373e+00 1.691213e+00 1.707697e+00 1.515205e+00 1.449292e+00 1.455985e+00 1.425672e+00 1.342026e+00 1.400443e+00 1.333836e+00 1.194995e+00 1.318440e+00 7.489408e-01 8.941785e-01 9.982219e-01 8.894194e-01 9.736114e-01 1.040080e+00 1.262390e+00 1.316153e+00 1.187036e+00 1.250502e+00 1.382858e+00 1.277776e+00 1.106700e+00 1.164237e+00 1.100677e+00 1.181085e+00 1.237162e+00 1.184780e+00 1.119892e+00 1.162897e+00
<GCONST> 1.108400e+02
<MIXTURE> 21 3.226402e-03
<MEAN> 60
 6.357524e-01 -9.590966e-01 3.840810e-01 -1.826445e-01 -6.484213e-01 -7.018104e-01 -7.178994e-01 9.249422e-01 1.689469e-01 3.710385e-02 -5.388665e-01 -1.388625e-01 3.277724e-01 -9.525332e-02 -1.271387e+00 -1.931791e-01 8.785403e-01 -6.409915e-01 -1.943434e-01 1.880521e-01 1.997945e-01 6.423225e-01 -6.374667e-01 6.043811e-01 7.121810e-01 6.594393e-02 -1.653742e-01 -8.096803e-01 4.673406e-02 3.163809e-01 -3.394643e-03 -7.401860e-01 3.490581e-02 8.934190e-01 6.836788e-02 -7.060189e-01 2.374969e-03 5.803357e-01 -2.701046e-01 -3.453550e-01 -6.987571e-01 1.283313e+00 -2.299966e-01 5.786865e-01 6.374096e-01 4.014539e-01 7.482077e-01 -1.198165e+00 -4.290527e-01 -4.107213e-02 4.329267e-01 -1.410420e-01 -4.413458e-01 7.040741e-02 1.188884e+00 1.178438e-01 -1.026778e+00 5.293639e-01 2.563269e-01 -1.453066e-01
<VARIANCE> 60
 1.037215e-01 3.234617e-01 3.564484e-01 3.105044e-01 3.328252e-01 5.237644e-01 5.169417e-01 4.963726e-01 6.564783e-01 7.989197e-01 6.504498e-01 6.583109e-01 7.133849e-01 7.173263e-01 5.092837e-01 8.330298e-01 6.036155e-01 8.034218e-01 8.531856e-01 9.284596e-01 2.262705e-01 9.035217e-01 8.302736e-01 7.689164e-01 8.062229e-01 9.206757e-01 1.040619e+00 1.195999e+00 1.181372e+00 1.111440e+00 1.128053e+00 1.100443e+00 1.257085e+00 1.016566e+00 1.134910e+00 1.234559e+00 1.211980e+00 1.259688e+00 1.170386e+00 1.176343e+00 5.224195e-01 5.696692e-01 7.986712e-01 6.768393e-01 7.509195e-01 1.021303e+00 8.220956e-01 7.103235e-01 1.071444e+00 1.150795e+00 9.706103e-01 9.611422e-01 1.001343e+00 9.644945e-01 7.378834e-01 1.030108e+00 7.860058e-01 1.020818e+00 1.033561e+00 1.106023e+00
<GCONST> 9.440455e+01
<MIXTURE> 22 5.087110e-03
<MEAN> 60
 6.452008e-01 -1.133640e+00 -2.280333e-01 -4.208934e-01 -2.752968e-01 -1.863229e-01 -3.358898e-01 9.833371e-01 1.837256e-01 4.817392e-01 -9.754031e-01 -4.424530e-01 -8.596844e-02 2.175840e-02 -2.297518e-01 -8.018200e-01 1.213520e+00 -4.444566e-01 9.635602e-02 -1.903714e-01 4.213585e-02 -2.427532e-03 -1.092414e-01 2.141046e-02 1.350695e-01 1.366826e-02 5.217008e-02 -1.565542e-02 -9.420477e-03 -1.611621e-02 -6.328024e-02 -7.591853e-03 -4.390594e-02 8.975736e-02 3.856767e-02 2.435375e-02 -4.551518e-02 -1.503848e-02 4.577964e-02 -1.079227e-01 -3.724684e-01 8.121698e-01 7.423741e-02 4.726910e-01 2.687526e-01 -5.419898e-02 2.435870e-01 -7.413350e-01 7.748396e-02 -4.454225e-01 6.150392e-01 1.645652e-01 1.095336e-01 1.944012e-02 -2.191361e-02 6.123452e-01 -1.095956e+00 3.225498e-01 -1.158908e-01 1.843488e-01
<VARIANCE> 60
 9.361638e-02 3.419905e-01 3.457265e-01 3.906319e-01 4.085792e-01 6.407716e-01 5.536630e-01 5.432478e-01 6.215670e-01 8.141830e-01 6.205049e-01 7.032520e-01 7.755437e-01 8.468083e-01 8.007586e-01 6.821496e-01 5.309592e-01 8.215927e-01 9.378485e-01 8.145468e-01 1.335074e-01 5.853930e-01 5.291495e-01 4.509972e-01 5.168759e-01 6.915684e-01 6.237659e-01 7.109071e-01 5.126776e-01 6.671682e-01 7.873474e-01 7.304081e-01 8.613189e-01 8.113759e-01 8.334616e-01 8.775553e-01 8.718437e-01 8.455200e-01 8.000273e-01 7.559665e-01 3.292248e-01 4.131672e-01 5.373580e-01 4.543757e-01 4.619572e-01 5.412887e-01 5.105231e-01 5.544412e-01 5.646057e-01 5.652769e-01 5.527841e-01 5.978894e-01 6.293052e-01 6.958551e-01 6.521004e-01 6.082608e-01 4.698298e-01 7.298440e-01 7.918553e-01 7.260307e-01
<GCONST> 7.804774e+01
<MIXTURE> 23 4.932296e-03
<MEAN> 60
 -9.783461e-01 2.205709e-01 -4.257876e-01 4.738282e-01 5.069375e-01 4.466373e-01 6.481860e-01 3.071199e-02 2.558074e-01 1.722032e-01 4.638741e-01 8.077189e-01 8.712305e-01 1.020562e+00 1.008470e+00 8.181210e-01 7.564291e-01 7.036235e-01 4.144712e-01 2.565115e-01 -1.322852e-01 2.700334e-02 1.683112e-03 9.927863e-03 -1.888471e-04 5.421367e-02 4.144330e-02 -2.509205e-02 1.445825e-02 8.775982e-02 8.965556e-02 5.667014e-02 1.003667e-01 1.115454e-01 1.542235e-01 1.570376e-01 1.413415e-01 1.321188e-01 9.428480e-02 5.848639e-02 3.357503e-01 2.621819e-01 4.696485e-01 2.331150e-01 1.577250e-01 -4.094871e-02 -6.870194e-02 6.854026e-02 2.526840e-02 -1.388990e-01 -3.938673e-01 -5.907891e-01 -7.442634e-01 -7.936898e-01 -7.495369e-01 -6.566463e-01 -6.055022e-01 -4.594861e-01 -2.625023e-01 -1.821554e-01
<VARIANCE> 60
 3.190404e-01 4.609832e-01 4.516490e-01 4.150997e-01 4.349920e-01 5.133006e-01 5.198666e-01 5.644999e-01 5.821617e-01 8.297386e-01 7.318878e-01 6.278388e-01 6.492430e-01 6.226395e-01 6.888260e-01 7.158860e-01 7.168369e-01 7.559511e-01 7.873706e-01 7.798064e-01 2.659452e-01 4.968489e-01 5.779564e-01 5.034446e-01 4.609379e-01 4.771472e-01 5.192792e-01 5.483575e-01 6.215203e-01 7.447728e-01 7.409594e-01 8.214728e-01 8.134503e-01 8.330221e-01 8.467416e-01 8.537579e-01 8.071961e-01 8.497356e-01 8.987844e-01 9.223803e-01 4.178146e-01 4.034827e-01 5.593475e-01 4.256821e-01 4.654256e-01 5.371613e-01 5.792080e-01 5.745060e-01 6.575242e-01 7.945904e-01 7.029873e-01 7.310680e-01 7.128544e-01 7.199659e-01 7.824942e-01 7.940496e-01 7.881324e-01 8.120914e-01 8.503706e-01 8.796782e-01
<GCONST> 8.226775e+01
<MIXTURE> 24 1.865427e-03
<MEAN> 60
 -1.094446e+00 5.020598e-01 1.713934e-01 4.063100e-01 3.476708e-01 3.392118e-01 5.541728e-01 -1.165305e-02 6.369786e-01 1.560121e-01 7.566715e-01 3.589930e-01 4.226992e-01 4.473757e-01 4.084238e-01 -2.633630e-02 -1.385201e-02 -9.620384e-02 -4.875834e-01 -4.951097e-01 1.753684e+00 -3.459477e-01 2.028689e-01 -1.006315e+00 -1.317513e+00 -1.243916e+00 -9.942322e-01 -8.001024e-01 -1.103517e+00 -5.250191e-01 -9.083741e-01 5.090824e-02 -4.520458e-03 2.336418e-03 6.913652e-01 9.677626e-01 9.806859e-01 1.217773e+00 8.581999e-01 5.400466e-01 9.239497e-01 -5.441722e-01 3.367690e-02 -5.438062e-01 -4.199918e-01 -3.681781e-01 -4.993472e-01 9.698055e-02 -6.102740e-01 2.277371e-02 -8.582600e-01 -2.583680e-01 -4.086933e-01 -2.955719e-01 -1.919174e-02 5.970608e-01 8.949707e-01 1.084635e+00 1.383422e+00 1.105178e+00
<VARIANCE> 60
 4.422502e-01 5.388367e-01 7.114737e-01 4.752000e-01 5.183389e-01 4.912491e-01 7.079578e-01 5.477210e-01 5.628893e-01 5.773117e-01 5.162053e-01 6.831608e-01 6.696994e-01 6.310763e-01 7.302621e-01 6.267934e-01 5.736461e-01 5.652820e-01 5.136157e-01 4.566953e-01 6.399148e-01 7.328976e-01 1.125477e+00 7.458187e-01 8.490461e-01 8.404201e-01 9.231232e-01 8.692456e-01 8.743415e-01 8.800120e-01 7.686680e-01 9.873148e-01 1.083025e+00 1.082128e+00 9.804083e-01 1.069771e+00 9.853405e-01 8.488125e-01 9.990020e-01 1.055781e+00 8.299455e-01 7.907884e-01 1.292043e+00 7.672179e-01 9.525678e-01 8.786743e-01 1.106533e+00 8.444065e-01 9.598837e-01 8.891219e-01 8.732896e-01 9.928897e-01 1.030847e+00 1.113544e+00 1.151908e+00 1.141649e+00 1.128078e+00 9.649781e-01 9.051037e-01 1.151441e+00
<GCONST> 9.666776e+01
<MIXTURE> 25 4.350921e-03
<MEAN> 60
 1.327802e+00 -4.137421e-01 -1.849553e+00 1.778206e-01 8.870186e-01 -4.320408e-01 -1.677270e+00 1.194683e-01 9.402296e-01 1.244919e-02 3.167808e-02 2.715299e-01 -2.253872e-01 -6.570382e-01 -6.918131e-02 -4.581088e-03 -2.202158e-01 -2.636520e-01 -5.002531e-01 3.209855e-01 -2.263617e-01 -1.860071e-01 4.056720e-01 3.636553e-01 -2.345957e-01 -2.109580e-01 2.119375e-01 3.636023e-01 1.288261e-01 -1.603347e-01 -9.164022e-02 -1.033293e-01 -7.517947e-02 4.391437e-02 2.645892e-01 1.242916e-01 -1.632597e-01 1.751319e-02 3.056596e-01 1.888737e-01 -1.160681e+00 2.009638e-01 1.687811e+00 1.665563e-01 -7.169663e-01 2.937562e-01 1.590347e+00 3.388108e-02 -8.622225e-01 -2.072999e-01 7.838659e-02 -1.100343e-01 -6.934765e-02 4.615916e-01 2.676059e-01 -1.780817e-01 -1.010620e-02 4.226644e-01 4.964145e-01 -4.709444e-01
<VARIANCE> 60
 8.538619e-02 2.886198e-01 2.721006e-01 4.910542e-01 4.923815e-01 6.249395e-01 6.961986e-01 1.060755e+00 7.248549e-01 9.136411e-01 9.081462e-01 9.080508e-01 8.865857e-01 1.013207e+00 8.887239e-01 9.487117e-01 9.635298e-01 1.003024e+00 9.538826e-01 9.774057e-01 2.868000e-01 1.235916e+00 8.935842e-01 7.333220e-01 7.979649e-01 1.106383e+00 1.328609e+00 1.846906e+00 1.313977e+00 1.158478e+00 1.170916e+00 1.075355e+00 1.294473e+00 1.226405e+00 1.088746e+00 1.206590e+00 1.159678e+00 1.001507e+00 1.157037e+00 1.224445e+00 5.227666e-01 4.593988e-01 6.120434e-01 7.723667e-01 7.506474e-01 8.198187e-01 8.627505e-01 1.045548e+00 8.377475e-01 1.062601e+00 1.053831e+00 1.047986e+00 1.034843e+00 1.181485e+00 1.077060e+00 1.131616e+00 1.116439e+00 1.132893e+00 1.038513e+00 1.093125e+00
<GCONST> 1.012640e+02
<MIXTURE> 26 3.048220e-03
<MEAN> 60
 1.025184e+00 6.787500e-01 -5.240822e-01 -1.842201e+00 -1.218962e+00 1.063074e+00 6.825802e-01 -1.931972e-02 -1.594540e-01 -4.256082e-01 1.874429e-01 1.692194e-01 4.612818e-01 4.392969e-01 -2.400558e-01 -1.206982e+00 -3.245778e-01 9.100964e-02 4.469822e-02 6.602578e-01 -2.877820e-02 -8.519728e-01 -4.535222e-01 -2.060931e-01 4.500277e-01 7.292140e-01 2.803237e-01 -1.106424e-01 -9.223875e-02 1.480095e-01 5.293447e-01 4.197485e-01 -2.603610e-01 -7.127247e-01 -6.918927e-01 -1.335288e-01 7.228857e-01 7.828875e-01 5.856624e-01 -5.213533e-03 -2.212826e-01 -3.095964e-01 -2.043089e-01 7.751359e-01 8.523130e-01 -1.328639e-01 -3.256502e-01 -3.941481e-01 -1.807716e-01 3.364615e-01 2.691729e-01 -1.119441e-01 -7.897727e-01 -5.075347e-01 1.689311e-01 8.556871e-01 6.022251e-01 8.076350e-02 -3.576762e-01 -8.002467e-01
<VARIANCE> 60
 5.278308e-02 2.704632e-01 1.997454e-01 2.406710e-01 3.012702e-01 3.685984e-01 3.988664e-01 6.280837e-01 6.256117e-01 6.618409e-01 7.212141e-01 6.815986e-01 7.736406e-01 8.213015e-01 7.858291e-01 7.404510e-01 8.910129e-01 9.123405e-01 8.400760e-01 8.979766e-01 6.090333e-02 2.821259e-01 2.794717e-01 4.317247e-01 4.051109e-01 5.014731e-01 4.147317e-01 5.082809e-01 6.359379e-01 6.439269e-01 7.506495e-01 7.017154e-01 6.712893e-01 6.495616e-01 7.250848e-01 8.484868e-01 7.507398e-01 7.206315e-01 7.232500e-01 8.130271e-01 1.281166e-01 2.775316e-01 2.848056e-01 3.747729e-01 3.671084e-01 4.158636e-01 4.219258e-01 4.575664e-01 5.176886e-01 6.350606e-01 6.452085e-01 6.166101e-01 6.610404e-01 7.362577e-01 6.583741e-01 6.345371e-01 6.794827e-01 7.504559e-01 7.410707e-01 6.881204e-01
<GCONST> 6.893389e+01
<MIXTURE> 27 2.918203e-03
<MEAN> 60
 6.542444e-01 -1.016440e+00 -8.857692e-01 -6.036382e-01 3.485313e-01 5.543040e-01 -1.376297e-02 -1.630682e-01 2.335702e-01 -3.903518e-01 -3.274626e-01 -3.856042e-01 -2.656857e-01 1.384135e-01 -1.570347e-01 -3.702363e-02 -1.495239e-01 -3.273083e-01 -2.490421e-01 -3.785007e-01 2.533197e-02 7.941289e-02 5.406181e-02 1.164574e-01 9.439269e-02 2.216295e-02 8.590302e-02 9.448757e-02 6.527822e-02 7.431507e-02 6.126263e-02 1.167454e-01 1.112687e-01 9.514274e-02 6.332902e-02 9.728537e-02 7.877915e-02 6.124099e-02 6.027484e-02 4.689594e-02 6.848238e-02 1.106979e-01 1.475635e-01 8.431136e-02 2.683231e-04 1.045278e-02 9.276625e-02 1.586179e-01 9.472091e-02 1.354766e-01 1.069412e-01 9.480258e-02 1.122940e-01 6.513873e-02 9.979301e-02 1.252678e-01 9.106100e-02 1.313639e-01 7.036903e-02 1.386895e-01
<VARIANCE> 60
 1.305081e-01 3.912441e-01 3.945392e-01 6.913808e-01 6.312861e-01 8.643430e-01 9.672225e-01 8.642376e-01 7.923029e-01 8.269246e-01 8.975611e-01 9.432855e-01 1.132925e+00 9.756905e-01 8.883224e-01 7.845099e-01 9.618539e-01 7.386810e-01 7.200130e-01 7.004059e-01 2.124197e-02 5.551772e-02 7.705372e-02 8.959104e-02 8.714559e-02 1.154149e-01 1.216018e-01 1.263868e-01 1.273712e-01 1.464210e-01 1.521158e-01 1.592964e-01 1.694334e-01 1.764819e-01 1.911514e-01 1.858472e-01 1.810669e-01 1.795250e-01 1.937473e-01 1.883569e-01 2.480702e-02 5.154806e-02 6.708233e-02 8.241442e-02 8.432221e-02 9.775399e-02 1.021607e-01 1.086605e-01 1.129230e-01 1.180759e-01 1.354878e-01 1.448057e-01 1.592766e-01 1.422434e-01 1.542513e-01 1.653460e-01 1.757404e-01 1.707991e-01 1.639454e-01 1.821181e-01
<GCONST> 1.767635e+01
<MIXTURE> 28 3.298524e-03
<MEAN> 60
 -4.712558e-01 1.619733e+00 7.458113e-01 1.524003e+00 8.564619e-01 2.787942e-01 -6.935692e-03 -7.540184e-01 -5.070810e-01 -5.650024e-01 -5.959682e-01 -3.966054e-01 -4.214966e-01 8.458255e-03 3.578582e-01 3.257321e-01 3.173764e-01 5.713356e-01 3.657807e-01 2.298471e-01 -1.612383e+00 -1.017722e-01 -4.518115e-01 4.603878e-01 1.099001e+00 1.266137e+00 9.972993e-01 4.946259e-01 7.773759e-01 4.852992e-01 2.786109e-01 4.905745e-01 1.703134e-01 3.662287e-01 8.052904e-01 7.002295e-01 6.384650e-01 7.893134e-01 7.513754e-01 4.823909e-01 3.228403e-01 -2.041188e+00 -7.371997e-01 -1.676412e+00 -1.127616e+00 -4.640296e-01 -9.097952e-03 9.206297e-01 6.545054e-01 8.478940e-01 9.253452e-01 6.610098e-01 7.088113e-01 1.569905e-01 -2.445413e-01 -2.621975e-01 -3.919448e-01 -5.602735e-01 -3.762079e-01 -2.378941e-01
<VARIANCE> 60
 1.560897e-01 2.145693e-01 2.666781e-01 1.795417e-01 2.289197e-01 3.410454e-01 4.134071e-01 4.112536e-01 4.298332e-01 5.614523e-01 5.129134e-01 5.563148e-01 5.372037e-01 5.287582e-01 5.266573e-01 5.715597e-01 5.938095e-01 5.756652e-01 6.823398e-01 7.537916e-01 4.056196e-01 8.879793e-01 1.257236e+00 9.791067e-01 7.834218e-01 8.741020e-01 7.126174e-01 1.018253e+00 1.126175e+00 1.115274e+00 1.182619e+00 1.064974e+00 1.206485e+00 1.146565e+00 9.669592e-01 1.008882e+00 9.563370e-01 9.783126e-01 9.901200e-01 1.024767e+00 5.173250e-01 6.954961e-01 1.255869e+00 7.731266e-01 7.211698e-01 7.776417e-01 8.197182e-01 8.008356e-01 9.158107e-01 9.779621e-01 8.520794e-01 9.405954e-01 8.707339e-01 8.324345e-01 8.565372e-01 9.220555e-01 9.373475e-01 8.717715e-01 9.862375e-01 1.097359e+00
<GCONST> 8.877238e+01
<MIXTURE> 29 4.104818e-03
<MEAN> 60
 7.350121e-01 -6.275173e-01 -1.342940e-01 -5.618121e-01 -2.601233e-01 4.103532e-02 -1.112937e+00 -4.270130e-01 5.188312e-01 1.041846e+00 6.281680e-02 -1.019113e+00 -3.151152e-01 5.459083e-01 -2.620856e-01 -1.064934e+00 -1.058762e-02 -2.175089e-01 5.481052e-02 3.647312e-01 6.507686e-01 -2.549992e-01 -3.231538e-01 -1.907828e-01 -2.344572e-01 5.235924e-01 -1.486932e-01 -4.149171e-01 -1.990415e-01 2.015237e-01 5.828144e-01 -2.458399e-01 -7.735977e-01 2.096600e-02 5.162373e-01 -8.336544e-02 1.274711e-02 1.327550e-02 -1.330710e-01 2.581444e-01 -1.487678e+00 1.134281e+00 -2.060061e-02 7.880512e-01 8.668486e-01 1.323734e-01 1.437875e+00 2.899892e-01 -5.600118e-01 -9.762501e-01 -1.078956e-01 1.154317e+00 3.069016e-01 -6.140437e-01 3.416927e-01 1.244219e+00 1.399193e-01 2.991707e-01 -5.685916e-02 -3.559014e-01
<VARIANCE> 60
 9.603266e-02 3.554859e-01 3.385348e-01 4.399526e-01 3.214491e-01 5.019829e-01 4.896412e-01 6.337427e-01 5.134670e-01 6.115037e-01 8.368949e-01 5.785638e-01 7.611235e-01 7.945864e-01 6.756763e-01 7.574949e-01 8.055185e-01 8.698555e-01 9.089082e-01 8.337092e-01 8.082325e-01 1.739014e+00 8.774932e-01 1.522530e+00 1.212829e+00 1.314540e+00 1.139379e+00 1.446959e+00 1.251725e+00 1.217905e+00 1.301924e+00 1.221697e+00 1.505542e+00 1.159797e+00 1.337474e+00 1.264854e+00 1.325241e+00 1.208890e+00 1.227543e+00 1.189710e+00 7.134838e-01 8.325086e-01 9.817827e-01 1.046893e+00 7.677625e-01 1.133217e+00 9.521062e-01 1.204207e+00 1.006468e+00 1.000981e+00 1.312271e+00 1.012378e+00 1.189057e+00 1.169789e+00 1.009232e+00 1.033256e+00 1.164608e+00 1.163896e+00 1.214497e+00 1.103426e+00
<GCONST> 1.034871e+02
<MIXTURE> 30 2.674994e-03
<MEAN> 60
 -1.942357e+00 1.435694e+00 -4.685979e-01 7.808339e-01 9.842217e-01 -1.772694e-01 1.310863e+00 -7.663064e-02 9.210780e-01 1.601570e-01 7.249887e-01 5.673990e-01 1.846400e-01 5.406148e-01 3.268349e-01 2.898637e-01 7.776475e-02 1.146565e-01 -1.781260e-01 -3.197020e-01 1.829049e-01 -3.530963e-02 5.917342e-01 -9.588701e-02 3.181428e-01 -4.027873e-03 -7.877854e-02 1.440521e-01 -1.071505e-01 1.189625e-01 -1.114142e-01 1.770556e-02 9.211395e-02 3.085045e-02 6.267788e-02 9.345426e-02 -6.112173e-02 2.874548e-02 8.342659e-02 -2.098328e-02 9.438158e-01 -8.384837e-01 4.512151e-01 -9.573849e-03 -2.524822e-01 5.212898e-01 -7.326659e-01 1.780303e-01 -3.735019e-01 -3.404851e-02 -1.865600e-01 -2.074327e-01 2.020304e-01 -4.657021e-02 1.263180e-01 1.118665e-01 2.111328e-01 1.690199e-01 2.806596e-01 3.259517e-01
<VARIANCE> 60
 2.246975e-01 3.198204e-01 3.238816e-01 4.074686e-01 3.775461e-01 3.831720e-01 3.666565e-01 3.342907e-01 3.758809e-01 4.889873e-01 5.316386e-01 5.826548e-01 5.231557e-01 4.434053e-01 4.964829e-01 4.948002e-01 4.900757e-01 4.841411e-01 5.067171e-01 4.563856e-01 8.369154e-01 1.117867e+00 1.081421e+00 8.493464e-01 7.186509e-01 7.540856e-01 6.935050e-01 6.128669e-01 6.200746e-01 6.511698e-01 5.799751e-01 6.878718e-01 6.726732e-01 6.559435e-01 6.879115e-01 6.804205e-01 6.973695e-01 7.043672e-01 6.433979e-01 6.275643e-01 4.595791e-01 6.350930e-01 7.972172e-01 6.168793e-01 6.995789e-01 4.948774e-01 6.365252e-01 4.728085e-01 6.177434e-01 6.051832e-01 5.981402e-01 7.276607e-01 6.339219e-01 6.153036e-01 6.633254e-01 6.858796e-01 6.870268e-01 6.281152e-01 6.347041e-01 6.127648e-01
<GCONST> 7.677543e+01
<MIXTURE> 31 2.832047e-03
<MEAN> 60
 -2.200731e-01 1.126502e-01 1.316112e+00 -1.148184e+00 -1.031576e+00 1.566118e-01 -1.787550e-01 -6.893663e-01 -4.606243e-01 4.428166e-01 -9.670483e-01 -3.165199e-01 -2.402461e-01 -4.986967e-01 9.433212e-02 4.158001e-01 1.209463e+00 1.556087e+00 1.551688e+00 1.803789e+00 2.419345e-02 2.189759e-02 -1.080200e-01 7.195132e-02 2.473239e-02 1.115649e-01 9.690106e-02 -6.285280e-02 8.327503e-03 -1.020447e-01 -1.129664e-01 -7.909641e-03 3.929227e-03 -3.273641e-02 8.555222e-02 1.019826e-01 9.293265e-03 6.538731e-02 4.753219e-02 -4.715831e-03 1.713088e-01 -3.758588e-02 -3.767863e-01 4.306224e-01 7.324368e-02 -3.004334e-01 5.945940e-02 8.042271e-02 -8.743085e-02 -2.084929e-01 3.278019e-01 1.589053e-01 6.481320e-02 2.261789e-01 1.620840e-01 -1.374934e-01 -3.856231e-01 -4.061018e-01 -5.169269e-01 -6.884832e-01
<VARIANCE> 60
 1.511350e-01 3.970310e-01 3.710644e-01 3.412780e-01 3.385296e-01 5.866839e-01 8.612651e-01 5.892979e-01 7.532781e-01 9.322135e-01 7.653879e-01 8.990908e-01 7.651147e-01 7.323823e-01 9.474798e-01 1.075658e+00 9.249441e-01 8.647636e-01 7.115405e-01 7.179387e-01 1.125393e-01 3.258928e-01 3.067823e-01 2.999682e-01 2.674600e-01 3.788913e-01 5.201814e-01 3.925973e-01 4.884554e-01 5.435275e-01 5.533316e-01 5.723949e-01 5.083470e-01 5.474643e-01 7.418484e-01 8.267734e-01 8.723747e-01 9.704131e-01 8.511418e-01 7.686037e-01 1.675933e-01 3.072549e-01 3.854117e-01 3.705245e-01 3.391251e-01 4.431349e-01 5.064754e-01 3.973913e-01 4.861107e-01 5.320691e-01 5.218102e-01 5.679913e-01 5.305413e-01 5.084734e-01 6.193646e-01 6.282600e-01 6.610433e-01 7.962621e-01 6.667404e-01 7.437345e-01
<GCONST> 7.193530e+01
<MIXTURE> 32 3.178902e-03
<MEAN> 60
 7.410116e-02 -1.433487e-01 1.737419e+00 3.451995e-02 -1.443517e+00 -2.769599e-01 -6.374687e-01 -2.655938e-01 -1.219456e+00 -7.739124e-01 6.988980e-01 -3.548248e-01 -7.810605e-02 1.877264e-01 1.410162e-01 2.169201e-02 -7.400625e-01 -3.030467e-01 -7.530442e-02 -7.852659e-01 8.011974e-01 -8.836057e-01 8.018121e-01 -2.864958e-01 -1.277236e+00 1.374245e-01 -9.000182e-01 3.147416e-01 -5.937955e-01 -4.494700e-01 9.452005e-01 -4.976108e-01 1.731835e-02 4.878797e-01 -7.043243e-04 -5.333686e-03 3.563038e-02 2.768852e-01 -1.225312e-01 -2.646526e-01 -1.292797e+00 4.109353e-01 -1.478091e+00 1.553573e-01 1.520380e+00 2.915412e-01 1.029745e+00 2.777613e-01 9.491075e-01 8.681397e-01 -4.413670e-01 4.834144e-01 2.002962e-01 -7.419368e-02 7.367871e-03 1.789627e-01 5.707502e-01 2.242447e-01 2.394723e-01 7.795298e-01
<VARIANCE> 60
 1.267349e-01 3.521059e-01 3.125618e-01 3.953976e-01 2.980019e-01 4.196640e-01 3.592947e-01 5.934582e-01 4.279833e-01 6.938813e-01 5.766545e-01 6.728390e-01 6.506602e-01 7.099349e-01 6.380432e-01 7.402999e-01 7.174946e-01 8.232219e-01 8.455678e-01 8.415158e-01 3.967929e-01 4.393456e-01 8.500492e-01 6.952102e-01 6.983371e-01 9.220270e-01 6.764923e-01 8.990466e-01 9.304551e-01 1.023197e+00 7.893130e-01 8.894782e-01 9.570344e-01 1.022195e+00 8.048739e-01 8.558563e-01 1.001565e+00 1.090762e+00 1.114485e+00 1.246396e+00 6.020943e-01 7.660577e-01 8.481392e-01 6.536717e-01 7.203235e-01 7.447774e-01 6.440222e-01 8.103531e-01 7.313145e-01 8.398395e-01 8.049625e-01 8.040727e-01 8.358190e-01 8.176365e-01 7.852983e-01 7.983559e-01 8.531477e-01 9.594298e-01 9.756380e-01 9.331622e-01
<GCONST> 8.860621e+01
<MIXTURE> 33 3.196163e-03
<MEAN> 60
 4.809126e-01 -9.937509e-01 1.705393e-01 -2.134771e-01 -6.394510e-01 -1.026854e+00 1.774555e-01 1.210510e+00 3.230872e-01 -2.208190e-01 -2.664201e-01 -5.293581e-02 -6.581261e-02 -6.734095e-01 -6.139547e-01 1.167319e-01 6.581095e-01 -1.818475e-01 -3.168018e-01 3.190863e-01 -2.814426e-01 8.600989e-01 1.127838e+00 4.837709e-01 -7.046274e-01 -7.654535e-01 -1.180954e-01 -1.259710e-01 -1.068448e+00 -5.482529e-02 1.099375e+00 8.972840e-01 -1.144416e-01 -6.712050e-01 2.612031e-01 -1.880403e-02 -1.020978e+00 -3.116312e-01 3.791295e-01 3.778091e-01 -3.439848e-01 9.482465e-01 -8.096814e-02 4.557875e-01 6.870848e-01 9.031294e-01 -1.498297e-01 -1.227452e+00 -3.620824e-01 1.156693e-01 2.692831e-02 -3.226203e-01 1.604496e-02 1.013922e+00 6.451999e-01 -2.081929e-01 -7.493534e-01 1.178706e-01 3.177269e-01 -4.496629e-01
<VARIANCE> 60
 9.467564e-02 3.226025e-01 2.793847e-01 3.233160e-01 3.542657e-01 4.253500e-01 5.167878e-01 4.647232e-01 6.121939e-01 6.400039e-01 7.609485e-01 6.624215e-01 6.470124e-01 6.741958e-01 7.018132e-01 8.813189e-01 7.029872e-01 7.829931e-01 7.651911e-01 8.645404e-01 1.396004e-01 4.263766e-01 5.172058e-01 5.377247e-01 6.563368e-01 6.763237e-01 1.011301e+00 7.647152e-01 8.367493e-01 9.392222e-01 9.290439e-01 9.067878e-01 1.130203e+00 1.001402e+00 9.814599e-01 1.089218e+00 9.748649e-01 1.107350e+00 9.839661e-01 9.127607e-01 3.478584e-01 4.987926e-01 6.205164e-01 6.287469e-01 6.231780e-01 7.282475e-01 6.827033e-01 7.072524e-01 7.549081e-01 9.216104e-01 1.010941e+00 9.351469e-01 8.561848e-01 7.974924e-01 8.406808e-01 1.034681e+00 8.868048e-01 9.172071e-01 9.164091e-01 9.603754e-01
<GCONST> 8.621021e+01
<MIXTURE> 34 4.061619e-03
<MEAN> 60
 9.733493e-01 -1.008097e+00 -4.365724e-01 4.265174e-01 5.173377e-02 -1.132670e+00 -1.687845e+00 1.289312e+00 3.554081e-01 -8.651125e-01 1.247747e-01 2.001658e-01 -4.913823e-02 -2.285867e-01 -1.420976e-01 -5.508518e-01 -6.266695e-01 1.617109e-01 -3.145036e-01 -2.716997e-01 -4.608235e-01 7.332473e-01 8.252760e-01 6.511549e-01 -1.241807e-01 -2.151312e-01 4.936007e-01 -5.559553e-01 -3.571403e-01 -2.051222e-01 -4.061510e-01 3.489350e-01 5.191764e-01 -4.390367e-02 -2.379832e-01 2.695049e-01 -2.479737e-02 -1.630674e-01 -9.975071e-02 -3.045942e-01 -1.236211e+00 1.119544e+00 4.687814e-01 2.444474e-01 2.444089e-01 9.524469e-01 1.698485e+00 -1.267923e+00 -2.873050e-01 7.239017e-01 -2.663277e-01 -2.274328e-01 -9.432852e-02 1.767104e-01 2.188630e-01 4.775962e-01 6.285544e-01 -1.438203e-01 2.384026e-01 3.354014e-01
<VARIANCE> 60
 9.409713e-02 2.509044e-01 5.500318e-01 4.066786e-01 6.101831e-01 5.900044e-01 6.817748e-01 6.007582e-01 8.895782e-01 8.257047e-01 8.021619e-01 1.016427e+00 8.108447e-01 7.734092e-01 7.206599e-01 7.360246e-01 7.777075e-01 8.518522e-01 8.668365e-01 1.023582e+00 2.988050e-01 8.809968e-01 9.554707e-01 7.702924e-01 1.023969e+00 1.010306e+00 1.200979e+00 1.451487e+00 1.081091e+00 1.310535e+00 1.243723e+00 1.134732e+00 1.119851e+00 1.095157e+00 1.101635e+00 1.182028e+00 1.151453e+00 1.073661e+00 1.127340e+00 1.209436e+00 6.133043e-01 5.465467e-01 9.177730e-01 7.836365e-01 9.556092e-01 1.116690e+00 8.503782e-01 8.319850e-01 1.233927e+00 1.135223e+00 1.094775e+00 1.224038e+00 1.089061e+00 1.107015e+00 1.037308e+00 1.025663e+00 9.957214e-01 1.089779e+00 1.091443e+00 1.243838e+00
<GCONST> 1.011640e+02
<MIXTURE> 35 3.787667e-03
<MEAN> 60
 -5.088646e-01 -3.039510e-01 -1.246234e+00 1.344688e-01 7.251956e-01 8.483846e-02 3.595109e-01 -3.247879e-02 4.555389e-01 4.564547e-01 1.651177e-01 2.928288e-01 4.228164e-02 1.555273e-01 2.565935e-01 6.364291e-02 2.131873e-02 1.533655e-01 8.343974e-03 -5.581371e-02 -4.081863e-01 1.605252e-01 7.350513e-02 -2.843824e-01 -6.320472e-02 -2.108416e-01 1.938965e-01 1.254770e-01 1.654820e-01 5.283774e-03 1.444112e-02 9.414747e-02 1.382826e-02 -8.344495e-02 -1.349434e-01 -4.992434e-02 -1.146339e-03 -1.079285e-02 -4.766070e-03 -2.363568e-02 -6.275678e-01 1.196885e+00 1.991216e+00 8.593948e-01 -1.900229e-02 2.138533e-01 1.339375e-01 9.678552e-02 -2.460646e-01 -3.222236e-01 -1.319430e-02 2.337314e-02 2.094268e-01 1.960574e-01 1.694486e-01 2.562844e-01 2.175149e-01 2.415551e-01 2.474598e-01 2.051150e-01
<VARIANCE> 60
 3.323517e-01 8.102864e-01 5.766793e-01 7.123338e-01 5.471514e-01 8.205334e-01 6.557206e-01 7.162360e-01 7.137299e-01 7.859265e-01 7.394814e-01 7.268488e-01 7.664894e-01 7.204638e-01 6.308821e-01 6.569339e-01 6.359085e-01 6.220924e-01 5.980644e-01 6.195243e-01 9.339201e-01 9.587666e-01 1.273924e+00 8.369687e-01 6.190359e-01 8.172262e-01 6.097570e-01 5.797849e-01 6.073450e-01 6.679033e-01 6.808110e-01 6.772130e-01 6.653496e-01 7.228429e-01 7.200775e-01 7.078223e-01 6.752653e-01 7.315308e-01 7.023560e-01 7.158306e-01 1.122325e+00 1.309096e+00 1.112521e+00 1.108420e+00 1.067145e+00 1.160401e+00 1.022480e+00 9.599389e-01 1.055492e+00 9.712535e-01 9.254054e-01 1.067636e+00 1.054201e+00 9.508863e-01 9.356354e-01 9.060624e-01 8.732691e-01 8.860245e-01 8.493883e-01 8.364112e-01
<GCONST> 9.571868e+01
<MIXTURE> 36 5.470281e-03
<MEAN> 60
 -1.782168e+00 7.496189e-01 -4.550180e-01 -1.493510e-01 8.309199e-01 -1.800950e-01 6.704842e-01 3.176195e-01 1.076180e-01 4.521794e-01 -5.674402e-04 6.997992e-01 3.765724e-01 2.265919e-02 1.565118e-01 3.796435e-01 6.295937e-02 1.268215e-01 3.540326e-01 3.441518e-01 -5.286177e-02 1.314291e-01 6.903666e-02 6.836188e-02 1.156284e-01 9.090621e-02 -5.726640e-03 -2.479156e-02 3.807630e-03 2.993642e-02 6.980954e-03 -2.102838e-02 3.663563e-02 3.229282e-02 6.935707e-03 1.165397e-02 4.112924e-02 7.493008e-02 6.114523e-03 -1.490802e-02 4.396125e-01 3.881807e-02 5.601630e-01 4.239634e-01 2.036365e-01 2.612540e-01 2.039166e-02 4.439696e-02 5.141339e-02 -1.081526e-01 -9.145608e-02 -2.280878e-01 -4.163786e-02 1.429626e-01 1.177388e-01 -8.909342e-03 8.680449e-02 7.722461e-02 -1.170249e-01 -1.689681e-01
<VARIANCE> 60
 1.958721e-01 3.109954e-01 3.571615e-01 4.715229e-01 2.451043e-01 4.495299e-01 3.770128e-01 5.248357e-01 4.318641e-01 5.405327e-01 6.064928e-01 5.011123e-01 5.520689e-01 6.601296e-01 6.370131e-01 6.594517e-01 7.096915e-01 6.800967e-01 7.336386e-01 8.330400e-01 1.163332e-01 2.497798e-01 2.829393e-01 2.830076e-01 2.523164e-01 3.562141e-01 2.992463e-01 3.818946e-01 3.580201e-01 4.666457e-01 4.805298e-01 4.772228e-01 5.018572e-01 5.809752e-01 5.652144e-01 6.370241e-01 6.756685e-01 6.940672e-01 7.475695e-01 7.597231e-01 2.335479e-01 2.324373e-01 3.540022e-01 3.080383e-01 2.659078e-01 3.984259e-01 3.453511e-01 4.524601e-01 4.490054e-01 5.331576e-01 5.504957e-01 5.553344e-01 6.083095e-01 6.767294e-01 6.312260e-01 6.878144e-01 7.314495e-01 6.966252e-01 7.551561e-01 8.637388e-01
<GCONST> 6.397441e+01
<MIXTURE> 37 4.800756e-03
<MEAN> 60
 9.769470e-01 -1.130237e+00 -1.326028e+00 -4.331448e-01 3.360862e-01 7.226191e-01 -1.066778e-01 7.127749e-02 3.577557e-01 -3.934393e-01 6.154153e-01 -9.572662e-01 -1.261456e+00 8.558000e-01 3.689869e-01 -1.700375e-01 -2.333685e-02 1.223893e-02 -1.509826e-01 -1.591862e-02 1.133663e-01 -1.145546e-02 -2.727838e-01 1.493774e-01 1.535068e-01 -6.249775e-02 1.409707e-02 1.126764e-01 -2.263149e-02 -1.964375e-01 1.628045e-01 2.031400e-01 -2.529831e-01 -6.951809e-02 2.726533e-01 7.911551e-02 -1.036769e-01 -3.524499e-02 4.042827e-02 9.377580e-03 -3.223750e-01 4.418254e-01 5.759518e-01 2.542267e-01 -4.659615e-02 -5.353158e-01 -1.470355e-01 5.212030e-02 -1.252123e-01 3.554920e-01 -6.377368e-01 4.318562e-01 7.990067e-01 -7.061568e-01 -2.776652e-01 -1.362520e-02 3.703935e-02 -9.710057e-03 1.107014e-01 -9.176600e-03
<VARIANCE> 60
 8.082087e-02 3.603055e-01 2.310917e-01 5.289320e-01 6.011395e-01 7.652224e-01 9.723098e-01 9.015852e-01 9.400600e-01 8.684546e-01 7.727667e-01 7.953261e-01 8.912894e-01 9.335813e-01 1.183660e+00 8.801329e-01 8.812982e-01 9.046408e-01 8.880463e-01 9.040833e-01 8.828710e-02 3.784353e-01 4.126771e-01 4.401458e-01 4.497183e-01 6.984946e-01 6.407388e-01 7.213511e-01 5.990151e-01 7.065917e-01 6.700865e-01 7.602849e-01 8.516549e-01 9.203350e-01 8.785189e-01 8.165480e-01 8.191274e-01 7.740912e-01 7.876883e-01 8.066827e-01 1.774823e-01 3.860135e-01 4.643470e-01 4.387379e-01 4.991988e-01 5.556059e-01 6.870279e-01 6.872353e-01 7.631590e-01 6.409883e-01 5.105757e-01 6.996688e-01 7.055443e-01 7.401956e-01 8.297425e-01 7.622331e-01 7.386842e-01 6.888744e-01 7.477100e-01 7.607448e-01
<GCONST> 8.199768e+01
<MIXTURE> 38 2.818042e-03
<MEAN> 60
 9.248810e-01 -5.444605e-01 -9.098306e-01 -1.389017e+00 -9.134092e-02 1.433771e+00 2.707160e-01 -5.762937e-01 -3.771992e-01 6.655919e-01 1.028237e+00 -3.938574e-01 -1.011372e+00 -5.458966e-01 -5.467720e-02 9.065264e-02 1.066895e+00 5.577401e-02 -7.664825e-01 -1.220327e-01 -1.606900e-01 -7.216961e-01 -6.342487e-02 9.379511e-01 6.725284e-01 -5.797156e-01 -7.344335e-01 5.042474e-02 6.060958e-01 7.832038e-01 -5.853290e-02 -1.092613e+00 -9.343973e-01 5.295424e-01 1.197789e+00 3.630817e-01 -5.000238e-01 -6.278704e-01 -2.217595e-01 4.224526e-01 -1.337699e-01 2.958745e-01 3.734644e-01 5.276521e-01 -2.214491e-01 -9.119762e-01 -2.556574e-01 5.207134e-01 5.666017e-01 -4.719983e-01 -9.522169e-01 -6.167728e-02 8.187714e-01 7.960169e-01 5.072547e-03 -7.508578e-01 -1.137669e+00 1.049114e-01 9.576284e-01 2.628312e-01
<VARIANCE> 60
 6.099205e-02 3.025565e-01 2.412625e-01 2.999404e-01 4.019689e-01 4.491369e-01 6.349627e-01 6.401973e-01 6.204495e-01 7.488512e-01 7.577250e-01 7.713829e-01 8.820496e-01 8.275583e-01 8.985039e-01 9.573262e-01 8.253270e-01 9.833209e-01 7.427505e-01 8.195625e-01 6.527034e-02 2.516800e-01 2.506818e-01 3.591275e-01 2.875222e-01 4.998122e-01 5.463855e-01 4.430094e-01 5.293210e-01 6.834159e-01 6.926271e-01 6.931018e-01 7.908066e-01 7.143194e-01 5.889780e-01 8.045450e-01 8.057979e-01 7.349712e-01 8.040574e-01 7.286812e-01 9.194544e-02 2.370286e-01 2.950599e-01 3.893018e-01 3.882519e-01 4.366586e-01 4.057297e-01 5.329421e-01 4.752543e-01 5.317219e-01 6.453154e-01 6.821311e-01 7.975361e-01 7.703669e-01 6.493205e-01 6.856849e-01 6.737264e-01 7.914067e-01 5.912843e-01 6.790777e-01
<GCONST> 7.023595e+01
<MIXTURE> 39 4.042902e-03
<MEAN> 60
 5.445679e-01 7.285227e-01 1.998864e-01 6.881002e-01 -6.479275e-01 -4.129324e-01 7.288613e-01 -1.417780e+00 -1.457435e+00 5.988771e-01 -4.528686e-01 -7.735631e-01 5.854964e-01 -2.311218e-01 -6.638663e-01 -1.716176e-02 -2.542312e-03 -1.792892e-01 -2.184555e-01 -1.508574e-01 -3.910933e-02 2.824288e-01 1.296922e-02 9.659854e-02 7.106800e-02 2.869094e-02 3.909555e-02 -8.356453e-02 -5.187399e-02 -8.588905e-02 -8.964231e-02 7.658548e-02 9.189189e-02 1.272380e-01 3.944368e-02 -8.479198e-02 5.180198e-02 -3.467244e-02 -5.065739e-02 7.158043e-02 -3.756245e-01 -5.199292e-01 2.314768e-01 -6.319668e-01 4.618757e-01 2.651634e-01 -9.541207e-01 1.219716e+00 9.961649e-01 -8.349720e-01 2.611962e-01 4.458112e-01 -5.864682e-01 1.449370e-01 4.119217e-01 -1.093070e-01 -7.221945e-02 1.573427e-01 7.928943e-02 -7.253636e-03
<VARIANCE> 60
 8.912007e-02 3.121065e-01 3.228769e-01 4.550523e-01 3.809390e-01 5.257346e-01 4.589160e-01 6.403086e-01 5.832332e-01 8.621675e-01 1.047045e+00 8.101429e-01 9.846441e-01 1.070940e+00 9.595140e-01 1.073226e+00 1.078964e+00 1.089279e+00 1.093537e+00 1.153282e+00 5.398114e-02 3.163356e-01 2.138382e-01 2.395937e-01 2.732382e-01 3.062275e-01 3.511698e-01 4.569826e-01 4.139326e-01 5.449983e-01 5.150430e-01 4.990499e-01 5.180973e-01 5.361730e-01 5.162894e-01 5.260115e-01 5.794566e-01 5.797889e-01 5.953820e-01 6.518909e-01 2.754663e-01 5.811843e-01 8.874968e-01 7.519432e-01 7.869258e-01 7.844729e-01 6.402720e-01 9.366879e-01 9.358888e-01 9.887488e-01 9.919544e-01 8.869277e-01 9.030768e-01 9.433795e-01 9.520732e-01 9.602603e-01 9.743100e-01 9.337217e-01 9.561834e-01 9.624051e-01
<GCONST> 7.887938e+01
<MIXTURE> 40 4.464719e-03
<MEAN> 60
 7.877434e-01 -1.640468e-02 -5.791442e-01 -7.958687e-02 3.076591e-01 4.396896e-02 -1.170772e+00 -8.175248e-01 -1.038018e-01 6.108484e-01 4.361972e-01 -5.010647e-01 -6.810902e-01 2.177151e-01 4.169008e-01 -2.860121e-01 -6.186019e-01 -2.265788e-01 -1.066157e-01 1.917010e-02 3.847579e-01 8.986550e-01 -1.008924e+00 -1.113425e+00 4.095274e-01 1.379031e+00 7.048900e-01 -9.819808e-01 -8.617228e-01 8.492623e-02 8.238033e-01 5.040123e-01 -5.783213e-01 -6.946733e-01 1.830149e-01 5.141076e-01 2.155769e-01 -2.157589e-01 -3.593372e-01 1.309504e-02 -4.577353e-01 2.515942e-01 9.508371e-01 -1.139581e-01 -8.712284e-01 -1.853414e-01 1.148902e+00 7.152843e-01 -4.535421e-01 -1.015232e+00 -2.854469e-01 7.466592e-01 8.453765e-01 -3.640967e-01 -7.073175e-01 1.060933e-02 5.701644e-01 2.048204e-01 -1.427247e-01 -1.929658e-01
<VARIANCE> 60
 1.519616e-01 4.252968e-01 4.226296e-01 6.150287e-01 4.534301e-01 5.852041e-01 5.943693e-01 6.413010e-01 8.837990e-01 9.714223e-01 9.466545e-01 9.607239e-01 9.018128e-01 1.052336e+00 9.094939e-01 9.223124e-01 8.387573e-01 8.754352e-01 1.024795e+00 1.029147e+00 2.784121e-01 6.090308e-01 7.481517e-01 8.377732e-01 6.920993e-01 7.317784e-01 8.798097e-01 8.835580e-01 9.058497e-01 1.076708e+00 1.005932e+00 9.599769e-01 1.110691e+00 1.018134e+00 9.502826e-01 1.082172e+00 1.121632e+00 9.912798e-01 1.067233e+00 1.034069e+00 4.190112e-01 6.688784e-01 6.630341e-01 8.038179e-01 8.862844e-01 8.375378e-01 8.555617e-01 9.321001e-01 1.003607e+00 9.895869e-01 1.052103e+00 1.007329e+00 1.041732e+00 1.036557e+00 9.879290e-01 1.092337e+00 9.867151e-01 9.951040e-01 1.057479e+00 1.085647e+00
<GCONST> 9.818391e+01
<MIXTURE> 41 3.526267e-03
<MEAN> 60
 1.961527e-01 -9.887233e-02 1.702965e+00 -3.292319e-01 -1.531421e+00 -6.665127e-01 -1.903478e-01 -2.840384e-01 -1.711748e+00 7.022379e-01 3.182148e-01 -4.562366e-01 3.888456e-01 -1.248457e-02 -2.929232e-02 -5.419380e-01 -7.193484e-01 -2.404403e-01 -5.352121e-01 -4.671510e-01 -3.208201e-01 1.091276e+00 -6.362349e-02 7.616193e-01 4.720154e-01 1.451588e-01 2.485591e-01 -6.942218e-01 4.961828e-02 -1.102386e-01 -1.297931e-01 -1.350040e-01 2.250481e-01 3.591007e-01 -4.327391e-02 3.169263e-04 1.127443e-01 5.196310e-02 -2.166874e-01 -3.711262e-02 -8.385386e-01 6.105266e-01 -1.549566e+00 9.191834e-01 1.678828e+00 4.588361e-01 3.444620e-01 2.084769e-01 1.665320e+00 -8.531160e-01 -2.082840e-01 5.261210e-01 -4.485521e-01 -3.479201e-02 7.962327e-02 6.147837e-01 6.103305e-01 1.535149e-01 6.167561e-01 4.731618e-01
<VARIANCE> 60
 1.034350e-01 2.823764e-01 3.674888e-01 3.789706e-01 2.942585e-01 4.476137e-01 5.475405e-01 6.257264e-01 5.604031e-01 7.450314e-01 7.380148e-01 8.103755e-01 7.111655e-01 7.226357e-01 7.314730e-01 7.275819e-01 7.028234e-01 7.156169e-01 7.865009e-01 8.220443e-01 4.103745e-01 8.234892e-01 1.050479e+00 1.092431e+00 8.414668e-01 9.267499e-01 9.820266e-01 1.001840e+00 1.129937e+00 1.489138e+00 1.106582e+00 1.037849e+00 1.086509e+00 1.054974e+00 9.761602e-01 1.039395e+00 1.061946e+00 1.250669e+00 1.254968e+00 1.254037e+00 6.485009e-01 6.956348e-01 8.099183e-01 7.409316e-01 7.159258e-01 9.975829e-01 9.996862e-01 9.474037e-01 8.036286e-01 9.462250e-01 1.124779e+00 1.203087e+00 1.021536e+00 1.000821e+00 1.053160e+00 9.741828e-01 1.046951e+00 1.061352e+00 1.050639e+00 1.100656e+00
<GCONST> 9.682664e+01
<MIXTURE> 42 3.664838e-03
<MEAN> 60
 2.864703e-01 1.454836e+00 8.566231e-02 5.598433e-01 6.247821e-01 3.913241e-01 3.852059e-02 -1.052788e+00 -9.838011e-01 -5.296410e-01 -2.154039e-01 -2.711016e-02 -4.169662e-01 -3.021451e-01 -1.755877e-02 -3.029884e-02 -4.204553e-02 1.501132e-01 -1.788422e-01 -1.618503e-01 -1.356729e+00 8.028276e-01 1.019381e+00 1.347965e+00 7.070775e-01 7.200948e-02 5.829129e-01 1.505595e-01 -1.576064e-01 -3.377604e-01 -5.587330e-01 6.845047e-02 1.248443e-01 8.040430e-02 3.779629e-01 3.857622e-01 1.676680e-01 3.921055e-01 2.803894e-01 2.935804e-02 -2.329116e-01 -1.620104e+00 -4.841121e-01 -7.276222e-01 -4.775682e-01 -1.643535e-01 -2.223105e-01 9.110904e-01 1.205375e+00 7.735589e-01 3.294525e-01 -6.298666e-02 2.852449e-01 3.783896e-01 9.067318e-02 -3.221606e-02 2.912708e-02 -1.004046e-01 2.111505e-01 1.815056e-01
<VARIANCE> 60
 1.515737e-01 3.023825e-01 3.604885e-01 4.846101e-01 2.786955e-01 4.203278e-01 5.153660e-01 5.422998e-01 5.182006e-01 8.125435e-01 7.263059e-01 7.251579e-01 6.730714e-01 6.409436e-01 6.446909e-01 6.849279e-01 6.414091e-01 7.435157e-01 7.465214e-01 7.486610e-01 6.377563e-01 1.087905e+00 8.873709e-01 1.242674e+00 7.202139e-01 1.111387e+00 9.990099e-01 1.158533e+00 1.318473e+00 1.279913e+00 1.179299e+00 1.193435e+00 1.335667e+00 1.173630e+00 1.072010e+00 1.175745e+00 1.145466e+00 1.052837e+00 1.182657e+00 1.177022e+00 5.509525e-01 6.497688e-01 8.584559e-01 9.363155e-01 6.550903e-01 8.509210e-01 9.313580e-01 9.783079e-01 8.122494e-01 9.967639e-01 1.048152e+00 9.745378e-01 9.952115e-01 9.808303e-01 8.569160e-01 9.375311e-01 9.191881e-01 9.730309e-01 1.004031e+00 9.682276e-01
<GCONST> 9.676326e+01
<MIXTURE> 43 3.593410e-03
<MEAN> 60
 5.986488e-01 -1.278648e+00 -7.996973e-01 -2.929521e-02 5.615121e-01 8.332935e-01 9.749635e-02 2.320449e-01 1.229544e-01 -5.035260e-01 -1.909563e-01 -1.180100e-01 5.928178e-01 -9.062807e-02 2.380897e-02 2.115493e-01 -3.676088e-01 1.524213e-01 1.492190e-02 4.037864e-02 9.313266e-02 1.332387e-01 2.853277e-02 1.970125e-01 1.950759e-01 1.505473e-01 1.256634e-01 8.608180e-02 2.258631e-01 1.061522e-01 2.078697e-01 1.923875e-01 1.639034e-01 1.218995e-01 1.719527e-01 2.295832e-01 1.177416e-01 1.569394e-01 1.204514e-01 6.883714e-02 -4.494400e-02 2.039498e-01 4.112491e-02 -2.467926e-01 -2.949777e-01 -3.949572e-01 -3.317674e-02 -3.971799e-02 -1.224424e-01 -7.739363e-04 -2.952909e-01 -6.223618e-02 -4.213929e-01 3.960228e-02 -3.318954e-02 -7.956494e-02 1.668513e-01 -1.232351e-01 6.319674e-03 -2.064334e-02
<VARIANCE> 60
 1.322850e-01 2.394083e-01 3.648755e-01 4.599763e-01 6.612832e-01 5.087484e-01 9.162155e-01 6.261753e-01 6.608044e-01 6.780897e-01 6.091483e-01 1.058442e+00 8.142509e-01 7.509638e-01 8.345884e-01 7.343757e-01 7.645227e-01 8.529810e-01 7.933843e-01 8.035146e-01 8.367533e-02 1.802417e-01 2.571188e-01 2.427811e-01 2.482889e-01 2.693678e-01 3.627369e-01 3.267007e-01 3.292032e-01 3.287944e-01 3.328358e-01 4.159631e-01 4.309885e-01 4.080895e-01 4.727371e-01 4.679045e-01 4.439370e-01 4.596981e-01 4.514804e-01 5.042431e-01 8.397136e-02 1.566766e-01 2.187230e-01 1.876588e-01 2.227393e-01 2.063838e-01 2.870491e-01 2.186769e-01 2.592022e-01 2.888790e-01 2.444369e-01 3.739847e-01 3.414364e-01 3.331344e-01 3.833875e-01 3.958844e-01 3.627209e-01 4.191880e-01 3.949484e-01 4.040781e-01
<GCONST> 5.183338e+01
<MIXTURE> 44 3.810392e-03
<MEAN> 60
 3.687252e-01 -6.593894e-01 1.531405e+00 4.216695e-01 -1.405241e+00 -6.099465e-01 -9.453079e-01 4.269497e-01 -8.345254e-01 -1.258610e+00 1.044883e+00 -1.313030e-01 7.346576e-02 3.054387e-01 -3.607682e-01 2.521345e-01 -4.375993e-01 -5.839199e-01 -3.016269e-01 -2.588462e-01 -4.643077e-01 1.233134e+00 -2.038012e-01 5.931540e-01 8.566291e-01 -1.869739e-01 7.806104e-01 -5.802750e-01 -3.474392e-01 2.763042e-01 -6.595562e-01 5.582119e-02 -6.133216e-02 1.551003e-01 1.500049e-01 -1.256599e-02 1.456621e-01 -2.633900e-02 8.164527e-02 -2.330216e-02 -9.598900e-01 1.237624e+00 -1.385204e+00 1.492465e-01 1.710795e+00 1.809619e-01 1.017701e+00 -5.112293e-01 5.663660e-01 1.133538e+00 -1.161013e+00 2.207866e-01 -2.588809e-02 -3.250656e-01 3.195082e-01 -2.456544e-01 3.580191e-01 5.199350e-01 2.140865e-01 2.778910e-01
<VARIANCE> 60
 9.735441e-02 2.578624e-01 3.739698e-01 3.563145e-01 3.396986e-01 4.482592e-01 4.113959e-01 6.434774e-01 7.372953e-01 5.350575e-01 6.501588e-01 7.263413e-01 7.895181e-01 8.428254e-01 7.723527e-01 8.474573e-01 8.392708e-01 8.005682e-01 9.273217e-01 9.084566e-01 3.853435e-01 6.391947e-01 1.127693e+00 1.006488e+00 1.062020e+00 1.003217e+00 8.826787e-01 1.153733e+00 1.464232e+00 1.200752e+00 1.483087e+00 1.136131e+00 1.212072e+00 1.265595e+00 1.186116e+00 1.129907e+00 1.289641e+00 1.279292e+00 1.202138e+00 1.270777e+00 6.230820e-01 5.743862e-01 8.241535e-01 7.573257e-01 7.728543e-01 1.079306e+00 7.500843e-01 1.164827e+00 1.152160e+00 8.405111e-01 9.640572e-01 1.213428e+00 1.062889e+00 1.008290e+00 9.859314e-01 1.072567e+00 1.090727e+00 1.025665e+00 1.140926e+00 1.159606e+00
<GCONST> 9.864545e+01
<MIXTURE> 45 3.766485e-03
<MEAN> 60
 -8.419765e-01 -1.288178e-01 9.201998e-04 1.824229e-01 6.689608e-01 3.811651e-01 2.895879e-01 1.939268e-01 2.540016e-01 7.300068e-02 3.536950e-01 1.932710e-01 1.311013e-01 4.722131e-01 4.667006e-01 2.017763e-01 2.792708e-01 2.121506e-01 1.299054e-02 -4.219906e-02 -1.623706e+00 -6.763613e-01 -5.582828e-01 -6.245068e-01 5.053958e-01 4.513571e-01 5.859981e-01 1.091750e+00 1.175696e+00 6.888929e-01 9.288429e-01 8.015823e-01 3.817393e-01 4.479302e-01 5.569134e-01 4.459383e-01 3.305462e-01 3.721485e-01 2.697635e-01 5.583013e-02 5.369985e-01 9.079790e-01 4.986542e-01 1.746124e-01 -7.923263e-01 -5.526497e-01 -1.053769e-01 -5.142236e-01 -5.103829e-01 -9.624828e-02 -4.667148e-01 -1.223163e-01 2.189030e-02 -5.905302e-01 -4.871991e-01 -1.569478e-01 -3.735269e-01 -2.252987e-01 5.434657e-02 8.056909e-02
<VARIANCE> 60
 2.866353e-01 5.237033e-01 6.686924e-01 6.333556e-01 4.360442e-01 5.235172e-01 6.287107e-01 4.996824e-01 5.761319e-01 6.651780e-01 6.157531e-01 6.457745e-01 6.299824e-01 5.332893e-01 5.575264e-01 5.627993e-01 5.685986e-01 5.378602e-01 5.217218e-01 4.756649e-01 7.788355e-01 1.130572e+00 1.341103e+00 1.324276e+00 9.809134e-01 9.405021e-01 1.027095e+00 8.592839e-01 8.677587e-01 1.104843e+00 1.014015e+00 1.047094e+00 1.202417e+00 1.185960e+00 1.035596e+00 1.085231e+00 1.161505e+00 1.143064e+00 1.236849e+00 1.315530e+00 7.622646e-01 9.954581e-01 1.421403e+00 1.209982e+00 9.735727e-01 8.571507e-01 1.036853e+00 7.854876e-01 9.187379e-01 1.027187e+00 9.229825e-01 1.070543e+00 1.102666e+00 9.646861e-01 9.963347e-01 9.913970e-01 9.615270e-01 9.605463e-01 9.307284e-01 9.299983e-01
<GCONST> 9.930956e+01
<MIXTURE> 46 2.899857e-03
<MEAN> 60
 -1.819985e+00 1.530713e+00 -1.772006e-01 5.130046e-01 1.306512e+00 -2.688268e-01 1.054476e+00 -2.049504e-01 3.205486e-01 8.107954e-02 -1.405144e-01 6.319754e-01 -2.013780e-03 3.668814e-01 2.148732e-01 1.658302e-01 -7.329791e-02 1.874747e-01 1.599185e-01 -5.527917e-02 -2.099210e+00 3.303380e-01 -4.049323e-01 4.607288e-01 8.012623e-01 6.533546e-01 8.525279e-01 4.334542e-01 3.330058e-01 2.246381e-01 7.147499e-01 7.435029e-01 -1.617777e-01 5.549287e-01 9.355002e-01 6.518041e-01 6.359535e-01 7.126576e-01 3.826612e-01 4.639278e-01 1.807915e+00 -1.401132e+00 7.328449e-02 -7.123103e-01 -1.114912e+00 5.504517e-02 -1.070999e+00 2.782664e-01 -2.155777e-01 2.178194e-01 -1.628364e-01 -6.166225e-01 4.468086e-01 -4.698274e-01 -3.432593e-01 -3.215168e-02 4.524194e-02 -2.632109e-01 -5.306724e-02 -2.830090e-02
<VARIANCE> 60
 2.948953e-01 3.911944e-01 4.087007e-01 3.848099e-01 3.072667e-01 4.661604e-01 3.540377e-01 4.465381e-01 4.624763e-01 5.579018e-01 6.250067e-01 4.800943e-01 5.966949e-01 5.819923e-01 6.336289e-01 6.472682e-01 6.550654e-01 6.291469e-01 6.966089e-01 6.829244e-01 7.328284e-01 6.846768e-01 8.879645e-01 7.328808e-01 6.255088e-01 9.208618e-01 7.599424e-01 7.643042e-01 8.848926e-01 9.031570e-01 8.734695e-01 8.934631e-01 1.053458e+00 1.009721e+00 8.012958e-01 8.754787e-01 9.103840e-01 9.039271e-01 1.018993e+00 1.090502e+00 5.173141e-01 6.995732e-01 9.101108e-01 7.341659e-01 6.782764e-01 9.324363e-01 6.832048e-01 7.477667e-01 7.795110e-01 8.748705e-01 9.321795e-01 9.537482e-01 8.843924e-01 8.914676e-01 9.169688e-01 9.165826e-01 9.280679e-01 8.569170e-01 9.872836e-01 1.001428e+00
<GCONST> 8.956838e+01
<MIXTURE> 47 4.658577e-03
<MEAN> 60
 -1.323599e+00 3.149871e-01 1.628082e-01 -4.197063e-01 4.095687e-01 -1.216959e-01 6.374348e-01 5.398174e-01 -1.685714e-02 4.078484e-01 2.313442e-01 8.221194e-01 5.010569e-01 -5.533258e-01 9.999061e-02 8.808390e-01 -2.434165e-01 -5.581932e-01 6.261734e-01 5.633450e-01 6.556971e-01 3.903195e-02 3.367915e-01 3.058124e-01 -4.641242e-01 -6.027446e-01 -9.772900e-02 2.334603e-02 -1.076196e-01 -3.819856e-01 -4.203762e-01 -2.354591e-01 3.161591e-01 -1.949224e-01 -6.869152e-01 -5.139663e-02 1.468520e-01 -6.858161e-01 -2.354537e-01 1.651450e-01 1.230992e+00 -2.878652e-02 2.707881e-01 1.049524e+00 -1.805499e-01 1.778044e-01 -5.029988e-01 -4.219673e-01 -2.127348e-02 -3.894899e-01 -3.373940e-01 -7.605598e-01 -2.622606e-01 6.717839e-01 -4.317406e-02 -7.669911e-01 4.058793e-01 6.587875e-01 -5.656241e-01 -4.598893e-01
<VARIANCE> 60
 3.113329e-01 3.308625e-01 4.961641e-01 5.457184e-01 3.619370e-01 5.672892e-01 4.458596e-01 6.149155e-01 5.002869e-01 8.004037e-01 7.455228e-01 6.028969e-01 6.713852e-01 6.785379e-01 8.281364e-01 8.061451e-01 9.803956e-01 8.217257e-01 1.030555e+00 1.196454e+00 6.994389e-01 8.295103e-01 8.058262e-01 8.377261e-01 6.289379e-01 9.581918e-01 7.181554e-01 6.867249e-01 6.914942e-01 8.292344e-01 9.066185e-01 8.476658e-01 8.965744e-01 1.018132e+00 1.038213e+00 1.099197e+00 1.080270e+00 1.083526e+00 1.274585e+00 1.186301e+00 6.779103e-01 6.971865e-01 1.070515e+00 1.050254e+00 7.388316e-01 8.959127e-01 7.749560e-01 9.011576e-01 7.922759e-01 1.110968e+00 1.009956e+00 9.067689e-01 1.020855e+00 9.066629e-01 1.116196e+00 1.106001e+00 1.153518e+00 1.013706e+00 1.282670e+00 1.460190e+00
<GCONST> 9.784351e+01
<MIXTURE> 48 4.800764e-03
<MEAN> 60
 -1.180008e+00 8.481202e-01 1.539742e-01 1.291203e+00 9.761803e-01 8.974653e-01 8.272452e-01 3.585550e-01 7.175050e-01 6.413585e-01 6.421124e-01 6.548337e-01 4.179368e-01 6.854849e-01 9.137210e-01 8.011678e-01 7.619827e-01 1.028105e+00 8.534669e-01 6.296389e-01 -1.908370e-01 -1.576273e-01 -7.824095e-02 7.305275e-02 9.887766e-02 2.111432e-01 1.890953e-01 1.422766e-01 1.888917e-01 1.893998e-01 1.494026e-01 1.141747e-01 1.158321e-01 1.164535e-01 1.080920e-01 1.233103e-01 1.356708e-01 1.666588e-01 1.779981e-01 1.473624e-01 9.010390e-01 -5.860479e-01 -2.876674e-01 -9.958774e-01 -6.213109e-01 -8.615693e-01 -5.772634e-01 -3.778339e-01 -5.520762e-01 -4.948456e-01 -5.144526e-01 -3.776089e-01 -2.631075e-01 -4.568069e-01 -6.510014e-01 -6.394120e-01 -6.413533e-01 -8.008617e-01 -7.516833e-01 -5.387543e-01
<VARIANCE> 60
 1.457469e-01 1.393544e-01 2.215675e-01 1.809498e-01 1.817051e-01 2.912313e-01 2.745807e-01 3.517351e-01 3.861091e-01 4.338709e-01 4.898984e-01 4.609086e-01 5.232818e-01 5.481322e-01 4.846046e-01 5.035897e-01 5.738916e-01 5.121549e-01 5.298902e-01 5.679559e-01 2.301827e-01 3.114529e-01 3.767101e-01 3.297189e-01 2.947933e-01 3.732115e-01 3.756458e-01 4.166259e-01 4.782042e-01 5.371931e-01 5.142630e-01 5.630432e-01 5.750027e-01 5.812511e-01 5.845392e-01 5.972170e-01 6.353465e-01 6.763108e-01 6.960872e-01 7.105734e-01 6.899375e-01 6.187239e-01 9.696869e-01 6.333797e-01 5.868039e-01 7.125572e-01 6.532455e-01 6.915137e-01 7.008535e-01 7.589178e-01 7.307569e-01 8.069501e-01 8.099262e-01 7.889693e-01 8.230847e-01 8.115771e-01 8.009165e-01 7.482655e-01 7.345776e-01 7.800356e-01
<GCONST> 6.836023e+01
<MIXTURE> 49 1.944899e-03
<MEAN> 60
 -2.826207e-01 4.012357e-01 -2.820035e-01 4.131028e-02 -2.941311e-01 -3.268242e-01 3.231427e-01 7.185551e-01 1.514819e+00 1.476894e+00 7.628688e-01 1.929321e-01 -3.591093e-01 -6.786717e-01 -2.329666e-01 2.495032e-01 7.336712e-01 1.010513e+00 8.270240e-01 5.334503e-01 -9.097755e-01 4.536171e-01 2.995537e-01 7.565916e-01 6.991487e-01 9.478012e-01 7.540255e-01 2.652519e-01 1.968871e-01 -6.310714e-02 1.576651e-01 3.678550e-03 -1.163986e-01 3.336986e-01 4.895515e-01 3.425268e-01 3.581530e-01 3.016575e-01 1.452249e-01 -1.942496e-02 1.212898e-01 -4.112991e-01 2.514970e-01 5.775300e-02 5.958115e-01 4.992123e-01 -6.823912e-02 -7.787049e-01 -1.531521e+00 -1.406906e+00 -8.419843e-01 -1.728288e-01 5.558488e-01 9.275773e-01 4.881443e-01 -3.884143e-02 -5.969809e-01 -8.983358e-01 -7.720832e-01 -5.002719e-01
<VARIANCE> 60
 3.240378e-01 5.313742e-01 6.760910e-01 6.440250e-01 7.515180e-01 8.240784e-01 8.450850e-01 1.006947e+00 9.529596e-01 1.155411e+00 1.605675e+00 1.822527e+00 1.700041e+00 1.276493e+00 1.763252e+00 1.936532e+00 1.527545e+00 1.334977e+00 1.395380e+00 1.539215e+00 1.041821e+00 1.542786e+00 1.556351e+00 1.440112e+00 1.335824e+00 1.350388e+00 1.552500e+00 1.572650e+00 1.836447e+00 1.728740e+00 1.929518e+00 2.057055e+00 1.870613e+00 1.792968e+00 1.641743e+00 1.755250e+00 1.785400e+00 1.720492e+00 1.553946e+00 1.463720e+00 1.103417e+00 1.118412e+00 1.285089e+00 1.403560e+00 1.356295e+00 1.302269e+00 1.286186e+00 1.293687e+00 1.229072e+00 1.406411e+00 1.863319e+00 2.154049e+00 2.043967e+00 1.424750e+00 2.013826e+00 2.354214e+00 1.934072e+00 1.635569e+00 1.743816e+00 1.767363e+00
<GCONST> 1.299194e+02
<MIXTURE> 50 2.838113e-03
<MEAN> 60
 5.738162e-01 -1.226250e+00 -4.584149e-01 -3.004841e-01 8.367337e-03 -3.410257e-01 1.965111e-01 7.518312e-01 9.288683e-01 -3.460510e-01 -9.991460e-01 -6.847904e-01 4.540763e-02 5.997399e-01 -7.087473e-01 -5.596527e-02 9.533203e-01 2.759021e-02 -2.959429e-01 -4.858658e-01 -2.340797e-01 2.339802e-01 9.745614e-01 4.072105e-01 -9.340994e-01 -1.014865e+00 1.010615e-01 8.971453e-01 -4.364429e-01 -5.075677e-01 4.072399e-01 9.138090e-01 1.709303e-01 -1.290697e+00 -4.717501e-01 4.746608e-01 2.871218e-01 -1.347423e-01 -4.008894e-01 3.362240e-01 -9.104912e-02 7.474158e-01 3.791759e-01 1.518370e-02 -1.910998e-01 2.548844e-01 -1.681338e-01 -7.126862e-01 -8.741523e-01 4.696942e-01 1.034088e+00 2.771288e-01 -4.043987e-01 -5.548096e-01 7.271518e-01 1.444744e-01 -1.095796e+00 -3.436144e-01 4.487688e-01 6.358021e-01
<VARIANCE> 60
 9.595105e-02 3.225247e-01 2.807215e-01 3.479448e-01 4.299659e-01 5.253205e-01 5.628115e-01 5.320477e-01 5.737938e-01 7.305122e-01 6.553754e-01 7.158914e-01 7.432933e-01 8.473802e-01 7.213324e-01 7.716432e-01 6.497561e-01 8.692310e-01 8.497681e-01 7.784511e-01 9.639697e-02 3.102261e-01 3.576497e-01 4.296585e-01 4.781977e-01 5.977665e-01 7.780174e-01 6.188830e-01 5.435437e-01 7.948933e-01 8.139973e-01 8.673296e-01 9.648454e-01 7.312208e-01 8.483617e-01 9.366531e-01 8.890072e-01 9.047451e-01 8.318295e-01 8.784074e-01 1.632830e-01 3.575885e-01 4.457911e-01 4.840783e-01 4.611031e-01 5.669234e-01 5.866440e-01 6.362004e-01 6.474073e-01 6.955699e-01 7.046027e-01 7.405692e-01 8.213448e-01 8.391321e-01 7.137100e-01 8.012801e-01 6.652550e-01 8.967260e-01 8.282472e-01 7.059436e-01
<GCONST> 7.832118e+01
<MIXTURE> 51 2.547086e-03
<MEAN> 60
 9.521315e-01 -7.951486e-01 -1.202446e+00 -2.893090e-01 -1.217992e-01 3.384786e-01 3.022414e-01 2.318918e-01 -7.519391e-02 -8.491561e-03 8.670340e-01 -2.527131e-01 -1.482221e+00 -1.547702e-01 1.005801e+00 -1.594050e-01 -2.241254e-01 5.103903e-01 -3.164135e-02 -2.814641e-01 -3.387637e-01 1.516572e-02 8.264661e-01 -9.884632e-01 -4.272405e-01 1.097624e+00 9.593426e-01 -7.245352e-01 -6.081865e-01 6.213238e-01 7.147506e-02 -1.012862e+00 1.514359e-01 1.292661e+00 -3.457648e-01 -7.307107e-01 7.712211e-01 3.589526e-01 -5.794689e-01 -2.966885e-01 7.129612e-03 3.922354e-01 1.449427e-02 -2.702290e-01 4.879409e-01 2.137326e-02 -7.209101e-01 -3.730943e-01 5.932229e-01 1.311698e-01 -8.916441e-01 2.115723e-01 1.220697e+00 -2.403782e-01 -1.160425e+00 2.824617e-01 4.882838e-01 -6.853187e-01 -2.451076e-01 4.847996e-01
<VARIANCE> 60
 1.078422e-01 4.345706e-01 3.723930e-01 5.556563e-01 5.758544e-01 6.842214e-01 8.157310e-01 9.471474e-01 8.974666e-01 9.203776e-01 8.821634e-01 1.125938e+00 8.661844e-01 1.419964e+00 9.907845e-01 1.002001e+00 1.084768e+00 9.317690e-01 9.603549e-01 8.842757e-01 1.205604e-01 3.712528e-01 3.714148e-01 5.714343e-01 5.616440e-01 6.560638e-01 6.988235e-01 7.923590e-01 7.870803e-01 7.806625e-01 9.150851e-01 8.550705e-01 1.284976e+00 9.153807e-01 1.235298e+00 1.060281e+00 1.078311e+00 1.139731e+00 9.837278e-01 1.109322e+00 1.815283e-01 3.202241e-01 4.518130e-01 5.266661e-01 4.984504e-01 6.666521e-01 6.416749e-01 7.290059e-01 7.912598e-01 7.928548e-01 7.199452e-01 9.767290e-01 8.699960e-01 1.242710e+00 8.275481e-01 1.023536e+00 1.027031e+00 8.823901e-01 1.086415e+00 9.002050e-01
<GCONST> 9.087448e+01
<MIXTURE> 52 4.739729e-03
<MEAN> 60
 4.437909e-01 1.218579e+00 2.538203e-01 5.898064e-01 -5.091496e-01 -2.226092e-01 5.462472e-01 -1.252947e+00 -1.391198e+00 -2.937968e-03 -6.252601e-01 -6.614206e-01 7.833225e-01 1.982261e-01 -7.252916e-01 -2.307604e-01 6.024981e-02 -3.969660e-01 -3.358857e-01 -1.236764e-01 -7.205707e-01 -1.619662e-02 2.049749e-01 -1.048516e-01 8.864235e-01 2.382615e-01 -4.207137e-01 6.443515e-01 7.025697e-01 -4.223346e-01 8.893695e-02 5.453364e-01 -3.820630e-01 1.615412e-01 7.585353e-01 8.883985e-02 -2.008318e-02 2.775013e-01 1.034931e-01 6.508812e-02 -8.275092e-01 -1.314512e+00 -5.687862e-02 -5.616967e-01 5.106713e-01 1.648557e-01 -5.416193e-01 1.195196e+00 1.250909e+00 9.510373e-02 5.461362e-01 5.806664e-01 -7.230572e-01 -3.107651e-01 6.555087e-01 2.835888e-01 -1.081009e-01 4.485447e-01 3.780281e-01 4.563487e-02
<VARIANCE> 60
 1.086139e-01 3.085675e-01 3.189741e-01 4.412734e-01 5.003427e-01 4.913109e-01 5.615155e-01 7.407797e-01 6.138817e-01 9.899597e-01 1.028199e+00 9.442124e-01 8.926331e-01 1.143717e+00 8.962764e-01 1.139873e+00 1.157430e+00 1.118282e+00 1.175498e+00 1.098639e+00 4.324224e-01 1.311047e+00 9.458192e-01 1.138721e+00 1.023104e+00 9.838417e-01 1.076874e+00 1.357777e+00 1.272532e+00 1.289237e+00 1.344728e+00 1.245979e+00 1.286699e+00 1.327705e+00 1.168785e+00 1.293815e+00 1.222307e+00 1.218212e+00 1.187373e+00 1.258535e+00 6.745639e-01 9.454247e-01 1.113129e+00 9.487916e-01 1.184896e+00 9.529577e-01 9.737031e-01 1.225439e+00 1.043333e+00 1.336940e+00 1.313397e+00 1.166882e+00 1.149301e+00 1.263140e+00 1.126307e+00 1.278241e+00 1.324089e+00 1.296131e+00 1.279451e+00 1.257810e+00
<GCONST> 1.077330e+02
<MIXTURE> 53 3.577123e-03
<MEAN> 60
 9.957131e-01 1.351612e+00 -2.547905e-01 -1.451969e+00 -1.313297e+00 3.368271e-01 3.618024e-01 4.410783e-02 1.916905e-03 -4.431673e-01 -1.224030e-01 -3.145688e-01 1.469057e-01 6.689602e-01 4.133699e-01 -2.771963e-01 -4.535639e-01 -4.393366e-01 -5.562934e-01 -1.108346e-01 9.888380e-02 -4.458212e-01 -2.486011e-01 -6.120816e-01 -1.654567e-01 5.579630e-01 2.872714e-01 1.768980e-01 1.481645e-01 -5.043716e-02 2.484071e-01 3.033468e-01 2.135953e-01 -9.107895e-03 -2.880400e-01 -4.681538e-01 -9.446248e-02 1.545715e-01 3.789172e-01 4.356024e-01 -2.136071e-01 -7.149822e-01 -4.405468e-01 3.036370e-01 8.104585e-01 5.116713e-01 4.911752e-02 -2.788868e-01 -4.839848e-01 1.050427e-02 3.613922e-01 4.693615e-01 -7.320987e-03 -5.149676e-01 -5.826557e-01 -3.178274e-01 2.657209e-01 5.042089e-01 4.773617e-01 8.662195e-02
<VARIANCE> 60
 5.983573e-02 2.966634e-01 2.353607e-01 3.360830e-01 3.731537e-01 4.513898e-01 4.061071e-01 6.081902e-01 6.365933e-01 6.380430e-01 6.955714e-01 6.674857e-01 7.709201e-01 7.266390e-01 7.815182e-01 8.754045e-01 9.169806e-01 7.756191e-01 7.806993e-01 8.799834e-01 9.133109e-02 2.905491e-01 3.575059e-01 5.246542e-01 5.069199e-01 5.025958e-01 3.833678e-01 5.180864e-01 6.945621e-01 6.814563e-01 5.992393e-01 6.272949e-01 7.020519e-01 7.015792e-01 7.504023e-01 8.159955e-01 7.803056e-01 7.212582e-01 7.467069e-01 7.544448e-01 1.915063e-01 3.313845e-01 3.594658e-01 5.196080e-01 4.787097e-01 4.870612e-01 4.609064e-01 5.720315e-01 5.488897e-01 6.665360e-01 7.647685e-01 6.303072e-01 7.182376e-01 7.102826e-01 7.014949e-01 7.920480e-01 8.818787e-01 7.371411e-01 7.162275e-01 7.794250e-01
<GCONST> 7.358691e+01
<MIXTURE> 54 3.967307e-03
<MEAN> 60
 -1.540905e+00 5.778065e-01 -1.693216e-01 7.093925e-01 5.745122e-01 6.002438e-01 6.499622e-01 3.832151e-01 8.008549e-01 4.956416e-01 9.752344e-01 5.901310e-01 6.657764e-01 7.423671e-01 5.968475e-01 2.429333e-01 1.719706e-01 -7.139062e-02 -3.753052e-01 -4.718297e-01 -4.956351e-01 -7.387472e-02 -1.733565e-01 9.431159e-03 1.286791e-01 2.599262e-01 3.366004e-01 4.086938e-01 5.192761e-01 4.870105e-01 4.682501e-01 3.884725e-01 2.153800e-01 1.348307e-01 6.922330e-02 -4.372039e-02 -1.964237e-01 -2.089454e-01 -2.656175e-01 -2.790456e-01 1.307714e+00 9.895419e-02 3.652381e-01 -2.375310e-01 -4.533563e-01 -6.169776e-01 -5.858367e-01 -7.032547e-01 -8.294883e-01 -7.962899e-01 -9.467140e-01 -5.790959e-01 -6.178268e-01 -7.023193e-01 -4.058481e-01 -9.796593e-02 5.979333e-02 3.755803e-01 6.515803e-01 6.965307e-01
<VARIANCE> 60
 3.608646e-01 4.825849e-01 6.028382e-01 4.763616e-01 3.605212e-01 4.177773e-01 4.263891e-01 3.681878e-01 4.003200e-01 5.073032e-01 4.119429e-01 5.472249e-01 4.954855e-01 4.769565e-01 5.146766e-01 5.398043e-01 5.641174e-01 4.706227e-01 4.560638e-01 4.195745e-01 5.069915e-01 5.485362e-01 5.498299e-01 3.979772e-01 3.723232e-01 4.081608e-01 4.773591e-01 4.609378e-01 5.064081e-01 5.545253e-01 5.248564e-01 6.202101e-01 6.520211e-01 6.233095e-01 6.688382e-01 7.237538e-01 7.462099e-01 7.372063e-01 7.314675e-01 6.987840e-01 5.980626e-01 6.672725e-01 9.700159e-01 6.943131e-01 6.567338e-01 6.031477e-01 5.963116e-01 5.320992e-01 5.928099e-01 6.153743e-01 5.794458e-01 7.501950e-01 6.885871e-01 7.029443e-01 8.424737e-01 8.603535e-01 9.247910e-01 8.562415e-01 7.403989e-01 7.045014e-01
<GCONST> 7.610004e+01
<MIXTURE> 55 3.521434e-03
<MEAN> 60
 8.219653e-02 -1.370699e-01 1.654678e+00 2.167513e-01 -1.530099e+00 -5.683899e-01 -1.489908e-01 -2.463346e-01 -1.115926e+00 -3.593260e-01 7.867323e-01 1.515769e-01 -2.317142e-01 4.965914e-01 2.321123e-01 -7.626633e-02 -4.084250e-01 -5.063621e-01 2.219606e-01 -4.115289e-01 2.666971e-01 -3.481720e-01 -6.037659e-01 2.836377e-01 7.946838e-02 -6.262497e-01 8.566859e-02 5.697649e-01 1.936127e-01 -9.710202e-05 2.747268e-01 2.521551e-01 -4.012078e-02 -2.085431e-01 -1.820956e-01 -1.497913e-01 8.042403e-02 -2.168284e-01 -1.609439e-01 5.355542e-01 1.262960e-01 -1.625864e-02 -6.852539e-01 8.346847e-02 6.146215e-01 -1.261224e-01 -2.513576e-01 4.037617e-01 5.048228e-01 -1.864648e-01 -3.216326e-01 7.645929e-02 1.060310e-01 -3.980566e-01 -2.251963e-01 4.578029e-02 1.267405e-01 1.409416e-01 -2.785700e-01 2.369084e-01
<VARIANCE> 60
 7.900120e-02 2.749246e-01 2.563232e-01 3.262618e-01 2.280372e-01 3.617097e-01 3.445477e-01 5.046021e-01 4.446095e-01 6.953188e-01 5.756806e-01 6.622675e-01 6.214847e-01 6.921915e-01 6.300562e-01 6.880772e-01 6.709058e-01 6.704642e-01 7.024214e-01 7.376454e-01 6.661131e-02 2.352547e-01 2.465063e-01 3.013638e-01 2.696432e-01 3.353931e-01 3.162757e-01 3.793899e-01 4.201161e-01 4.484233e-01 4.515933e-01 3.924640e-01 4.198464e-01 5.928627e-01 4.203456e-01 5.021800e-01 4.755250e-01 5.539769e-01 6.398956e-01 5.774214e-01 1.254116e-01 2.206286e-01 4.394316e-01 2.573196e-01 3.455679e-01 3.211725e-01 3.591045e-01 3.442626e-01 3.920495e-01 4.082882e-01 4.552229e-01 4.191080e-01 4.116864e-01 4.532758e-01 4.056181e-01 4.849089e-01 5.216967e-01 4.738626e-01 4.945675e-01 5.409492e-01
<GCONST> 5.492294e+01
<MIXTURE> 56 3.554425e-03
<MEAN> 60
 8.172200e-01 -1.026470e+00 -8.328458e-01 -2.462023e-01 1.698429e-01 4.727903e-02 -5.257749e-01 2.608824e-01 4.593563e-01 6.519974e-01 -1.046971e-01 -1.137363e+00 -6.407763e-01 3.313719e-01 7.416344e-01 -9.731726e-01 -1.094877e-01 4.064773e-01 -2.075958e-02 6.308638e-02 -3.601593e-01 4.142092e-01 7.845857e-01 1.104672e+00 -3.723469e-02 -1.198307e+00 -3.520086e-01 6.621627e-01 2.271979e-01 -3.283938e-01 -8.562743e-01 5.071086e-01 1.089788e+00 -1.866033e-01 -5.859328e-01 -4.046268e-01 -3.921926e-01 4.204006e-01 2.556230e-01 -5.087179e-01 -8.228287e-01 9.766598e-01 6.835958e-01 1.623936e-01 7.379320e-02 3.292589e-01 7.526555e-01 -4.894305e-01 -4.142796e-01 -6.568158e-01 1.470645e-01 1.091055e+00 4.505252e-01 -3.931025e-01 -8.030856e-01 1.029638e+00 3.414766e-01 -4.525524e-01 -1.782114e-01 -6.124848e-02
<VARIANCE> 60
 8.627039e-02 3.467997e-01 3.481193e-01 4.934255e-01 5.567589e-01 7.178133e-01 9.449629e-01 9.025442e-01 7.682987e-01 8.931077e-01 1.055671e+00 8.277922e-01 1.015001e+00 1.060639e+00 9.021503e-01 9.027785e-01 1.053759e+00 9.874598e-01 9.994695e-01 9.472311e-01 3.105082e-01 9.241739e-01 7.066864e-01 9.411216e-01 8.708280e-01 1.034658e+00 1.088704e+00 1.290869e+00 1.150572e+00 1.324579e+00 1.436560e+00 1.434725e+00 1.495968e+00 1.702111e+00 1.397956e+00 1.313448e+00 1.563326e+00 1.259090e+00 1.278402e+00 1.144547e+00 7.658796e-01 6.122481e-01 8.585838e-01 1.074093e+00 9.618220e-01 1.113750e+00 1.236610e+00 1.112978e+00 1.178744e+00 1.161733e+00 1.342799e+00 1.106696e+00 1.365143e+00 1.463008e+00 1.152743e+00 1.078275e+00 1.398484e+00 1.249614e+00 1.287318e+00 1.225078e+00
<GCONST> 1.077754e+02
<MIXTURE> 57 3.281666e-03
<MEAN> 60
 -8.827120e-01 1.482548e+00 5.358687e-01 2.589535e-01 6.114976e-01 -1.040596e+00 4.040017e-01 -2.012356e-01 -3.984346e-01 -3.280371e-02 -4.111497e-01 6.383154e-01 3.566027e-01 -2.148576e-01 -2.382857e-01 -2.403414e-02 -5.783384e-01 -8.595533e-01 -3.625022e-01 -1.319314e-01 -2.398372e+00 1.003323e+00 -9.454679e-01 2.069503e-01 1.819265e+00 7.572129e-01 1.298727e+00 3.884270e-01 7.473210e-01 5.884060e-01 7.869000e-03 7.183907e-01 -3.372204e-01 1.511258e-01 7.136067e-01 4.096734e-01 4.829991e-01 7.213902e-01 4.889384e-01 5.917746e-01 2.113150e-01 -1.463190e+00 -2.214651e-01 -2.220703e-01 -7.751805e-01 9.990386e-01 -4.222720e-01 5.269861e-01 2.374902e-01 4.699537e-03 6.662168e-01 -4.990106e-01 -1.070947e-01 2.624778e-01 2.527421e-01 3.189828e-01 5.782251e-01 7.657157e-01 4.886649e-01 1.819708e-01
<VARIANCE> 60
 2.096031e-01 2.738051e-01 5.074056e-01 4.192390e-01 3.562464e-01 5.976598e-01 4.193729e-01 6.151298e-01 6.528689e-01 6.116083e-01 6.991841e-01 5.230983e-01 7.025393e-01 7.484045e-01 7.563605e-01 8.149636e-01 8.541791e-01 7.777109e-01 8.597351e-01 9.055523e-01 5.061151e-01 8.452139e-01 1.157184e+00 1.072950e+00 6.206316e-01 1.145180e+00 7.675828e-01 1.082740e+00 1.127644e+00 1.096557e+00 1.235204e+00 1.124229e+00 1.182667e+00 1.406461e+00 1.029777e+00 1.163410e+00 1.115574e+00 1.080503e+00 1.246144e+00 1.266412e+00 4.942039e-01 4.821161e-01 8.908294e-01 7.020442e-01 6.000878e-01 8.456109e-01 6.733944e-01 8.204368e-01 8.597877e-01 9.312631e-01 8.683997e-01 8.398222e-01 9.791272e-01 9.804897e-01 9.148722e-01 1.002393e+00 1.087451e+00 9.712074e-01 1.073953e+00 1.154669e+00
<GCONST> 9.639824e+01
<MIXTURE> 58 3.531790e-03
<MEAN> 60
 4.831763e-01 -7.359615e-01 5.905557e-01 -4.962580e-01 -8.023030e-01 -9.897755e-01 -5.526782e-01 9.877080e-01 -1.589484e-01 3.624836e-01 -5.444595e-01 4.942702e-01 2.482551e-01 -1.072198e+00 -6.226872e-01 2.737545e-01 -4.879460e-02 -6.036285e-01 4.154764e-01 3.229597e-01 7.356047e-01 -1.124677e+00 7.365060e-03 -5.186669e-01 -3.911681e-01 -2.961191e-03 -2.891489e-01 9.839908e-01 -1.456446e-01 3.996279e-01 -4.638954e-01 -2.028456e-01 -2.565283e-02 -2.617685e-01 -3.961508e-01 -2.591756e-02 1.992811e-01 -4.010799e-01 8.408865e-02 1.670174e-02 -1.138715e+00 1.014300e+00 -6.375484e-01 9.545456e-01 1.111069e+00 1.077896e+00 8.747310e-01 -9.564003e-01 3.127468e-01 -4.386840e-01 5.010741e-01 -5.321890e-01 -1.624269e-01 1.173787e+00 6.329656e-01 -1.624710e-01 1.379524e-01 6.300945e-01 -3.464759e-01 -3.673551e-01
<VARIANCE> 60
 1.037090e-01 2.980873e-01 3.877634e-01 3.051655e-01 4.117652e-01 4.208410e-01 5.861636e-01 4.034652e-01 5.984595e-01 5.008876e-01 7.646604e-01 6.269236e-01 8.058015e-01 6.452317e-01 8.642400e-01 8.369085e-01 9.038497e-01 9.479355e-01 9.723929e-01 1.103227e+00 5.055049e-01 6.376910e-01 1.191527e+00 6.822452e-01 1.183149e+00 1.040456e+00 1.157938e+00 7.492837e-01 1.185011e+00 9.962406e-01 1.267898e+00 1.151653e+00 1.197205e+00 1.206712e+00 1.386488e+00 1.284787e+00 1.435761e+00 1.439337e+00 1.392110e+00 1.415743e+00 7.566009e-01 7.005320e-01 8.273853e-01 7.128983e-01 9.048391e-01 8.850218e-01 9.861368e-01 6.760926e-01 1.013430e+00 8.228701e-01 1.272112e+00 9.841338e-01 1.157458e+00 1.015216e+00 1.153548e+00 1.125365e+00 1.189937e+00 1.230001e+00 1.276213e+00 1.400203e+00
<GCONST> 9.972214e+01
<MIXTURE> 59 4.103161e-03
<MEAN> 60
 3.272379e-01 1.239134e-01 -3.447488e-02 -2.453765e-01 4.812069e-03 -7.734405e-01 -8.124623e-01 -2.448088e-01 5.182034e-01 6.004133e-01 -6.954513e-01 -5.538280e-01 8.694133e-01 -2.484794e-02 -1.103252e+00 -2.116674e-01 -1.284693e-01 -3.699527e-01 8.711091e-02 -3.267542e-01 1.648354e+00 -1.152864e+00 -9.956269e-02 -5.513255e-01 -9.391515e-01 -2.247114e-01 -1.014729e+00 -4.140607e-02 2.755699e-01 4.067537e-01 -1.602793e-01 -8.968404e-01 9.022095e-02 5.159167e-02 -5.869566e-01 -4.506131e-01 1.423238e-01 -2.524795e-01 5.350063e-02 -4.891857e-02 -1.273417e+00 1.631790e-01 -9.857211e-02 4.557824e-01 4.945838e-01 1.010542e+00 1.133975e+00 3.377444e-01 -3.065291e-01 -3.941971e-01 6.088642e-01 5.975156e-01 -7.836028e-01 1.381945e-01 1.164758e+00 4.050603e-01 3.196502e-01 4.162876e-01 3.374817e-02 4.140678e-01
<VARIANCE> 60
 1.589623e-01 3.486710e-01 3.408297e-01 3.608826e-01 3.046319e-01 4.163961e-01 4.794113e-01 4.869266e-01 4.884446e-01 5.918507e-01 4.807424e-01 6.202658e-01 5.931475e-01 8.237262e-01 5.524673e-01 6.679457e-01 6.932399e-01 6.196286e-01 7.178219e-01 6.544530e-01 6.757308e-01 9.865157e-01 1.151876e+00 1.043952e+00 9.080401e-01 1.319151e+00 1.286344e+00 1.343632e+00 1.162878e+00 1.314777e+00 1.287120e+00 1.377990e+00 1.541836e+00 1.352469e+00 1.256709e+00 1.381886e+00 1.293147e+00 1.237071e+00 1.301382e+00 1.252124e+00 8.219062e-01 6.691554e-01 7.099023e-01 8.019634e-01 5.920495e-01 7.808141e-01 7.398611e-01 8.383501e-01 7.818012e-01 7.876042e-01 8.356084e-01 9.663492e-01 8.904889e-01 1.058082e+00 8.458056e-01 9.215845e-01 8.832229e-01 8.610527e-01 9.051876e-01 8.481364e-01
<GCONST> 9.579325e+01
<MIXTURE> 60 4.835672e-03
<MEAN> 60
 9.303690e-01 -9.308523e-01 -4.783380e-01 6.438971e-01 1.657057e-02 -1.417945e+00 -1.132636e+00 1.459573e+00 5.959337e-01 -7.548320e-01 8.583652e-02 7.958471e-01 -1.934762e-01 -4.530539e-01 -9.601166e-02 -4.611463e-01 -2.583064e-01 1.352704e-01 -1.274890e-01 6.921675e-02 2.635736e-01 1.747473e-01 -9.326919e-01 2.165313e-02 7.608162e-01 1.411821e-01 -6.066841e-01 -1.767934e-02 6.989593e-01 1.603175e-01 -4.991391e-01 -8.300225e-02 2.513095e-01 -8.975523e-03 -1.277009e-01 3.285395e-02 2.388807e-02 4.352305e-02 1.567565e-01 1.576371e-01 -2.396748e-01 2.294885e-01 4.119911e-01 -1.452101e-01 -2.315038e-01 3.554217e-01 3.731148e-01 -5.744247e-01 -3.518123e-01 2.820123e-01 7.411665e-02 -3.445163e-01 -2.913222e-02 2.087698e-01 4.042817e-02 -1.917896e-02 1.218216e-02 -1.288822e-01 -9.932638e-02 -2.710718e-03
<VARIANCE> 60
 7.092436e-02 2.621652e-01 3.801557e-01 2.927666e-01 4.370017e-01 3.644410e-01 6.483591e-01 5.371458e-01 7.185182e-01 6.139501e-01 7.124995e-01 7.343138e-01 6.384816e-01 6.046008e-01 6.264560e-01 6.206675e-01 6.917266e-01 6.609418e-01 6.887269e-01 8.151975e-01 6.392379e-02 1.683952e-01 2.992437e-01 2.220031e-01 2.756982e-01 3.122939e-01 3.741869e-01 4.152924e-01 4.228823e-01 4.796143e-01 4.169185e-01 4.420407e-01 4.107724e-01 4.375402e-01 4.639090e-01 4.516380e-01 4.728797e-01 4.915832e-01 5.233187e-01 5.443766e-01 1.140711e-01 1.820558e-01 3.471548e-01 2.483708e-01 3.132899e-01 3.016454e-01 3.727590e-01 3.784814e-01 3.782276e-01 3.925840e-01 3.941544e-01 3.965042e-01 3.783749e-01 3.879258e-01 4.009720e-01 4.145575e-01 4.122085e-01 4.515482e-01 4.612343e-01 4.914460e-01
<GCONST> 5.435501e+01
<MIXTURE> 61 4.120234e-03
<MEAN> 60
